~h "f"
<BEGINHMM>
<NUMSTATES> 5
<STATE> 2
<NUMMIXES> 2
<MIXTURE> 1 4.950387e-01
<MEAN> 39
 -1.682188e+01 -5.878321e+00 -2.839822e-01 1.991596e+00 -8.321005e-01 -2.527928e-01 -1.753256e+00 4.796667e-01 2.520175e-01 3.695687e-01 7.115704e-01 -1.294194e+00 4.575772e+01 -8.999459e-01 -4.151658e-01 -2.024038e-01 1.552412e-01 1.942059e-01 4.793586e-01 3.911866e-01 4.593093e-01 5.815275e-01 5.875169e-01 4.924966e-01 3.272547e-01 -1.042612e-01 4.876884e-01 1.184703e-01 1.847474e-02 -1.688627e-01 -8.105962e-02 -8.343873e-02 -7.112170e-02 -1.089728e-01 -1.769677e-01 -8.642428e-02 -7.042115e-02 -7.259425e-02 2.103447e-01
<VARIANCE> 39
 3.065097e+01 2.330457e+01 1.887905e+01 1.733525e+01 2.028694e+01 2.023422e+01 2.037412e+01 2.079314e+01 2.058334e+01 2.057024e+01 1.848544e+01 1.549660e+01 5.519119e+01 3.023892e+00 1.792741e+00 1.711145e+00 1.792595e+00 1.777402e+00 1.946055e+00 2.101761e+00 2.426716e+00 2.625388e+00 2.177714e+00 2.000762e+00 1.747537e+00 2.148056e+00 4.885791e-01 3.637779e-01 3.891004e-01 4.769459e-01 4.386620e-01 4.016063e-01 4.339193e-01 4.706603e-01 5.028126e-01 4.503188e-01 4.134822e-01 3.594969e-01 3.598005e-01
<MIXTURE> 2 5.049613e-01
<MEAN> 39
 -1.805917e+01 -6.779243e+00 -9.834795e-01 9.953414e-01 -2.212433e+00 -1.497869e+00 -2.711672e+00 -3.098868e-01 -3.678813e-01 -2.441128e-01 3.341491e-01 -1.627544e+00 4.631035e+01 -9.345456e-01 -7.580458e-01 -7.157199e-01 -4.261222e-01 -3.813543e-01 -1.047064e-01 -2.099138e-01 -9.534368e-02 5.017568e-02 6.736373e-02 6.646561e-02 4.747502e-02 6.595628e-02 5.509798e-01 1.059426e-01 1.505624e-02 -1.763095e-01 -1.275706e-01 -1.606266e-01 -1.737086e-01 -2.296268e-01 -2.884954e-01 -1.645357e-01 -1.711740e-01 -1.312387e-01 2.259847e-01
<VARIANCE> 39
 2.402428e+01 2.175812e+01 1.849008e+01 1.736669e+01 1.969292e+01 2.022228e+01 2.054941e+01 2.087286e+01 2.098696e+01 2.043509e+01 1.770767e+01 1.491394e+01 4.713209e+01 2.992136e+00 1.714858e+00 1.733003e+00 1.664956e+00 1.681264e+00 1.885698e+00 2.011309e+00 2.433035e+00 2.587708e+00 2.127338e+00 1.949186e+00 1.693806e+00 2.045021e+00 4.802101e-01 3.358042e-01 3.777404e-01 4.573048e-01 4.343986e-01 4.023260e-01 4.362780e-01 4.922589e-01 5.381566e-01 4.595401e-01 4.246396e-01 3.549515e-01 3.563776e-01
<STATE> 3
<NUMMIXES> 2
<MIXTURE> 1 5.632276e-01
<MEAN> 39
 -1.731864e+01 -7.847129e+00 -2.030639e+00 7.417282e-02 -2.007195e+00 -8.222388e-01 -2.532683e+00 -5.140008e-01 -1.665969e-01 7.912507e-01 1.165322e+00 -1.307504e+00 4.986630e+01 3.479597e+00 5.127860e-01 -3.973576e-02 -1.359927e+00 -4.281507e-01 1.565855e-01 9.039129e-03 -2.974789e-01 -4.846266e-01 -3.972100e-01 -1.669647e-01 -5.804846e-01 1.764337e+00 1.608627e+00 2.855120e-01 3.711777e-02 -1.022641e+00 -6.130469e-01 1.914890e-01 -8.362808e-02 -5.163395e-02 -3.452286e-01 -2.860257e-01 -7.371479e-02 -4.582333e-01 5.396418e-01
<VARIANCE> 39
 2.158871e+01 1.601476e+01 1.351918e+01 1.511553e+01 1.590792e+01 1.686919e+01 1.642264e+01 1.683837e+01 1.631288e+01 1.453352e+01 1.406836e+01 1.165912e+01 4.086944e+01 5.983238e+00 3.324033e+00 1.917992e+00 3.254577e+00 2.893611e+00 2.278584e+00 2.049020e+00 2.252339e+00 2.252049e+00 2.083747e+00 2.218463e+00 1.923320e+00 4.069206e+00 3.987147e-01 7.144215e-01 4.602334e-01 6.225362e-01 7.340358e-01 6.040071e-01 5.521202e-01 6.613737e-01 5.708645e-01 5.313943e-01 7.450291e-01 4.196105e-01 7.143592e-01
<MIXTURE> 2 4.367724e-01
<MEAN> 39
 -1.824342e+01 -8.567258e+00 -2.441320e+00 -7.855130e-01 -3.366652e+00 -2.172932e+00 -3.458477e+00 -1.156040e+00 -7.007488e-01 -3.608825e-01 5.651227e-01 -1.459580e+00 4.879911e+01 3.760448e+00 1.322097e-01 -9.175343e-01 -2.070049e+00 -9.002250e-01 -6.946574e-01 -1.046853e+00 -1.308099e+00 -1.448472e+00 -1.103437e+00 -1.384839e+00 -1.106483e+00 2.379865e+00 1.590782e+00 2.111862e-01 -3.112388e-01 -1.240781e+00 -4.177256e-01 2.075464e-02 -2.610366e-01 -3.064643e-01 -6.140474e-01 -2.717746e-01 -6.039865e-01 -5.367183e-01 5.206455e-01
<VARIANCE> 39
 1.973717e+01 1.689875e+01 1.274599e+01 1.458218e+01 1.592924e+01 1.583167e+01 1.607854e+01 1.704615e+01 1.611729e+01 1.449680e+01 1.399580e+01 1.154187e+01 3.898917e+01 6.017768e+00 3.349834e+00 1.925508e+00 3.827873e+00 2.323944e+00 2.245114e+00 2.334902e+00 2.523707e+00 2.792788e+00 2.166862e+00 2.785236e+00 2.076326e+00 4.509582e+00 3.890247e-01 7.997249e-01 4.321554e-01 8.114874e-01 6.715307e-01 5.812834e-01 5.491427e-01 6.830778e-01 6.066407e-01 5.355130e-01 7.578238e-01 4.824773e-01 7.336042e-01
<STATE> 4
<NUMMIXES> 2
<MIXTURE> 1 4.889041e-01
<MEAN> 39
 1.378371e+00 -9.582734e+00 -4.117471e+00 -1.113666e+01 -4.925642e+00 7.551072e-01 -3.523588e+00 -3.244494e+00 -3.692636e+00 -1.518031e+00 -1.178547e+00 -8.258089e+00 6.050451e+01 4.083745e+00 -1.291504e+00 -3.330251e-01 -3.476845e+00 -9.734113e-01 1.372748e+00 8.951345e-02 -1.678246e-01 -6.955837e-01 -5.607969e-01 -8.927022e-03 -1.537613e+00 3.100316e+00 -1.281140e+00 -1.072118e-01 1.923197e-01 5.019344e-01 1.776249e-01 1.408918e-01 1.533253e-01 2.256072e-01 3.054614e-01 3.410447e-02 7.940200e-02 3.607467e-01 -5.090408e-01
<VARIANCE> 39
 4.150252e+01 5.966683e+01 2.878191e+01 6.719006e+01 3.361593e+01 4.565587e+01 3.667545e+01 4.244882e+01 3.421640e+01 3.714131e+01 8.647114e+01 4.251123e+01 5.408605e+01 1.077183e+01 6.986070e+00 3.048955e+00 6.187103e+00 7.341644e+00 4.019235e+00 3.760290e+00 4.735663e+00 4.440821e+00 3.778269e+00 6.442895e+00 3.806006e+00 3.152293e+00 9.040131e-01 6.402564e-01 3.607156e-01 1.331110e+00 7.263976e-01 5.430488e-01 4.983495e-01 5.255023e-01 4.751179e-01 4.937294e-01 1.098476e+00 6.403758e-01 6.961121e-01
<MIXTURE> 2 5.110959e-01
<MEAN> 39
 -9.842561e-01 -8.352273e+00 -5.722450e+00 -1.004995e+01 -5.429963e+00 -2.733974e+00 -5.994103e+00 -5.241280e+00 -5.316164e+00 -3.767941e+00 -5.093778e+00 -7.710234e+00 5.767931e+01 5.050621e+00 -1.009806e+00 -1.666588e+00 -4.645045e+00 -1.090832e+00 1.938889e-01 -9.612818e-01 -1.214161e+00 -2.026519e+00 -1.110139e+00 -2.130379e+00 -2.121077e+00 3.196061e+00 -1.086380e+00 -2.440079e-01 1.354304e-01 1.554298e-01 1.440146e-01 2.516977e-01 1.710373e-01 3.064442e-01 1.603902e-01 1.185122e-01 1.967701e-01 3.167974e-01 -3.606306e-01
<VARIANCE> 39
 4.983037e+01 5.093528e+01 2.928860e+01 6.601349e+01 3.029564e+01 3.637982e+01 3.134200e+01 3.795022e+01 3.174085e+01 3.049384e+01 6.744696e+01 3.806519e+01 5.494071e+01 7.400400e+00 8.308912e+00 3.260747e+00 8.036043e+00 7.145026e+00 4.289892e+00 4.259047e+00 4.941682e+00 5.697945e+00 3.945716e+00 8.095934e+00 4.126133e+00 3.809549e+00 9.952587e-01 5.656035e-01 4.043601e-01 1.492774e+00 6.168981e-01 4.966163e-01 5.002436e-01 5.646185e-01 5.406757e-01 5.324769e-01 9.511206e-01 6.121917e-01 6.694622e-01
<TRANSP> 5
0.000000e+00 0.000000e+00 0.000000e+00 0.000000e+00 0.000000e+00 
0.000000e+00 5.772068e+08 2.737742e+06 0.000000e+00 0.000000e+00 
0.000000e+00 0.000000e+00 5.534237e+04 1.074374e+03 0.000000e+00 
0.000000e+00 0.000000e+00 0.000000e+00 3.121359e+03 7.562618e+03 
0.000000e+00 0.000000e+00 0.000000e+00 0.000000e+00 0.000000e+00 
<ENDHMM>
~h "k"
<BEGINHMM>
<NUMSTATES> 5
<STATE> 2
<NUMMIXES> 2
<MIXTURE> 1 5.153126e-01
<MEAN> 39
 -4.016636e+00 -1.631641e+00 1.071583e+01 1.572152e+00 -1.273139e+01 -1.634547e+01 -5.201402e+00 -1.741669e+00 -1.121136e+01 -2.051155e+00 1.322176e+00 -3.836280e+00 4.891774e+01 -1.642079e+00 3.099194e+00 -1.681559e+00 2.568137e+00 3.297062e+00 2.099273e+00 3.358887e-01 2.570927e-02 1.621684e+00 -1.838895e-01 7.424425e-01 1.294040e+00 -5.969405e+00 -5.595996e-01 -6.246811e-01 -8.359562e-01 -6.734910e-01 4.737765e-01 7.532404e-01 -3.983541e-03 2.268056e-01 1.140559e+00 3.124133e-01 -1.595957e-01 2.334952e-01 3.115822e-01
<VARIANCE> 39
 1.943833e+01 5.726347e+01 3.989753e+01 5.855040e+01 5.743531e+01 4.724388e+01 6.495855e+01 1.309051e+02 6.389427e+01 6.930583e+01 8.082250e+01 4.090857e+01 1.101592e+02 2.358543e+00 5.340316e+00 4.392338e+00 5.913253e+00 4.092630e+00 5.824601e+00 6.379601e+00 8.996102e+00 9.489840e+00 6.392347e+00 8.699302e+00 3.749910e+00 4.635672e+00 4.001118e-01 1.950713e+00 6.257848e-01 8.143899e-01 9.538371e-01 8.327252e-01 9.233044e-01 1.622920e+00 1.187423e+00 1.219223e+00 1.234788e+00 8.133052e-01 2.799669e+00
<MIXTURE> 2 4.846874e-01
<MEAN> 39
 -4.487715e+00 -1.046664e+00 1.033253e+01 1.032484e+00 -1.318406e+01 -1.702188e+01 -5.057539e+00 -4.113732e+00 -1.209888e+01 -1.692939e+00 -4.821785e-01 -4.216257e+00 4.762726e+01 -1.554474e+00 2.876741e+00 -2.035159e+00 2.394249e+00 3.054127e+00 2.064896e+00 -3.412657e-01 -2.225061e-01 1.485429e+00 -8.496791e-01 5.522493e-01 7.680924e-01 -5.789656e+00 -5.406320e-01 -8.478893e-01 -9.185359e-01 -7.511016e-01 3.732951e-01 6.332078e-01 -1.047913e-01 3.469364e-01 1.068169e+00 1.704725e-01 -9.737137e-02 2.007519e-01 6.727640e-01
<VARIANCE> 39
 1.845792e+01 6.059730e+01 3.534223e+01 6.438277e+01 6.397874e+01 4.530013e+01 6.354308e+01 1.333293e+02 6.299634e+01 7.234874e+01 8.461016e+01 4.330429e+01 1.003036e+02 2.742431e+00 6.237057e+00 4.656764e+00 6.778437e+00 4.138616e+00 5.347097e+00 6.477013e+00 9.157348e+00 8.832159e+00 8.038992e+00 8.795848e+00 4.371863e+00 5.041575e+00 4.279219e-01 2.114788e+00 6.072796e-01 9.478006e-01 1.031023e+00 8.728077e-01 1.072807e+00 1.562488e+00 1.197523e+00 1.382896e+00 1.350838e+00 8.876100e-01 3.097849e+00
<STATE> 3
<NUMMIXES> 2
<MIXTURE> 1 5.011925e-01
<MEAN> 39
 -1.193597e+01 -1.946382e+00 -2.092233e+00 2.298126e+00 -1.559529e+00 -5.040378e+00 -3.608061e+00 -2.984462e-01 3.093650e-01 5.811025e-01 1.614292e+00 -1.757386e-02 3.770084e+01 -1.385749e+00 -2.116268e+00 -2.500142e+00 -6.796951e-02 1.343291e+00 9.086598e-01 4.504542e-01 1.354133e+00 1.887352e+00 4.640118e-01 8.178966e-02 1.567977e-01 2.518420e+00 -1.728121e-01 -1.341682e-01 5.582262e-01 -1.456072e-01 -7.300405e-01 -8.184299e-01 1.352020e-01 7.134409e-02 -5.313204e-01 -1.442326e-01 -1.288669e-01 -2.258062e-01 1.505561e+00
<VARIANCE> 39
 1.673716e+01 6.738666e+01 4.963337e+01 2.030782e+01 2.428619e+01 3.149561e+01 3.069174e+01 2.834263e+01 2.660583e+01 2.401646e+01 2.160720e+01 1.935565e+01 9.319140e+01 4.256977e+00 6.030379e+00 4.600499e+00 3.487628e+00 4.092560e+00 6.875694e+00 4.250501e+00 4.736478e+00 4.707108e+00 3.487342e+00 3.674719e+00 3.182401e+00 1.500880e+01 1.245509e+00 2.493329e+00 1.116824e+00 6.418723e-01 7.746783e-01 8.754365e-01 1.025471e+00 1.017988e+00 8.025968e-01 7.348676e-01 7.874596e-01 6.339000e-01 3.008702e+00
<MIXTURE> 2 4.988075e-01
<MEAN> 39
 -1.172390e+01 -3.386826e+00 -2.669853e+00 2.406966e+00 -1.490684e+00 -5.443401e+00 -4.362655e+00 -3.264860e-01 -3.038502e-01 -1.516268e-01 9.407100e-01 -6.926723e-01 3.920737e+01 -1.143894e+00 -2.683998e+00 -2.983522e+00 -4.372286e-01 8.089417e-01 1.805759e-01 -3.783955e-01 5.963581e-01 1.247926e+00 -8.423443e-02 -6.169695e-01 -4.064670e-01 3.590647e+00 -3.571063e-01 8.429051e-02 6.311832e-01 -1.841517e-01 -7.426603e-01 -9.216675e-01 4.665566e-02 8.436559e-02 -5.521310e-01 -2.608863e-01 -7.270888e-02 -1.994767e-01 1.457085e+00
<VARIANCE> 39
 1.944682e+01 7.694983e+01 5.469540e+01 2.154510e+01 2.764982e+01 3.445713e+01 3.333186e+01 2.879119e+01 2.780211e+01 2.391103e+01 2.241100e+01 1.948770e+01 9.428224e+01 5.129358e+00 5.656704e+00 4.566735e+00 4.132466e+00 4.418386e+00 6.856927e+00 4.190929e+00 4.570750e+00 4.946691e+00 3.618592e+00 3.504399e+00 3.107281e+00 1.240065e+01 1.168063e+00 2.670841e+00 1.177886e+00 6.396033e-01 7.908133e-01 9.163322e-01 1.012938e+00 9.928217e-01 7.893520e-01 7.105327e-01 8.027154e-01 6.693896e-01 3.149412e+00
<STATE> 4
<NUMMIXES> 2
<MIXTURE> 1 5.009517e-01
<MEAN> 39
 -2.035135e+01 -6.141242e+00 -4.593401e+00 1.083156e+00 -9.490131e-01 -1.136713e+01 -4.214545e+00 3.991831e+00 2.056741e+00 -1.534562e+00 -9.345872e-02 -1.183939e+00 5.630386e+01 -4.852202e+00 2.219790e+00 1.298615e+00 -3.717878e-01 -2.782820e-01 -5.477852e-01 1.755318e+00 1.301629e+00 3.287361e-01 -5.441764e-01 3.067843e-01 8.504763e-01 1.683330e+00 -2.227754e-03 1.001799e+00 5.599754e-01 2.569112e-02 -4.324507e-02 7.623791e-01 3.596946e-01 -2.432822e-01 -4.285087e-01 2.809137e-02 2.274493e-01 1.854705e-01 -1.657697e+00
<VARIANCE> 39
 5.159117e+01 2.173498e+01 4.465428e+01 3.417055e+01 4.736516e+01 3.659384e+01 4.263645e+01 3.136635e+01 2.987782e+01 2.228424e+01 2.105922e+01 1.756941e+01 2.074642e+01 2.927485e+00 3.250933e+00 3.272867e+00 2.629721e+00 3.501386e+00 3.800710e+00 2.728667e+00 2.763563e+00 3.077985e+00 2.287581e+00 2.413147e+00 1.812705e+00 4.324285e+00 1.156414e+00 7.463466e-01 7.957978e-01 4.864547e-01 5.436488e-01 6.449614e-01 7.542167e-01 6.063496e-01 5.842799e-01 5.351003e-01 4.369191e-01 4.612218e-01 5.935447e-01
<MIXTURE> 2 4.990483e-01
<MEAN> 39
 -2.125964e+01 -6.624635e+00 -4.783555e+00 1.776888e+00 -1.710054e+00 -1.114003e+01 -4.063088e+00 3.979041e+00 2.681631e+00 -1.722076e+00 -4.141769e-01 -1.517382e+00 5.537436e+01 -4.477471e+00 1.625476e+00 7.619078e-01 -5.915256e-01 -9.202541e-01 -6.446610e-01 1.237307e+00 9.125751e-01 -1.956191e-01 -9.310216e-01 -8.756163e-02 3.804528e-01 1.583222e+00 2.010980e-01 8.589264e-01 4.091690e-01 -1.450525e-01 -1.186223e-01 6.335829e-01 1.818992e-01 -4.205341e-01 -6.342579e-01 -4.850881e-02 1.503443e-01 1.008115e-01 -1.438482e+00
<VARIANCE> 39
 5.365212e+01 2.049447e+01 4.169498e+01 3.377277e+01 4.814274e+01 3.575337e+01 4.355672e+01 3.197786e+01 2.699265e+01 2.322075e+01 2.326010e+01 1.792935e+01 1.865525e+01 2.736026e+00 3.183779e+00 3.283238e+00 2.577087e+00 3.365358e+00 3.910729e+00 2.853418e+00 2.696132e+00 3.054357e+00 2.298331e+00 2.431358e+00 1.809590e+00 4.710524e+00 1.177894e+00 8.016914e-01 8.181448e-01 4.449181e-01 5.722361e-01 6.135770e-01 7.282578e-01 6.330953e-01 5.792458e-01 5.296068e-01 4.778741e-01 4.834130e-01 6.435458e-01
<TRANSP> 5
0.000000e+00 0.000000e+00 0.000000e+00 0.000000e+00 0.000000e+00 
0.000000e+00 2.942972e+10 1.251102e+08 0.000000e+00 0.000000e+00 
0.000000e+00 0.000000e+00 3.442118e+10 9.696018e-01 0.000000e+00 
0.000000e+00 0.000000e+00 0.000000e+00 6.109658e+00 1.058027e+02 
0.000000e+00 0.000000e+00 0.000000e+00 0.000000e+00 0.000000e+00 
<ENDHMM>
~h "n"
<BEGINHMM>
<NUMSTATES> 5
<STATE> 2
<NUMMIXES> 2
<MIXTURE> 1 5.147313e-01
<MEAN> 39
 3.529315e+00 -3.583232e+00 9.459335e+00 -1.637562e-01 -1.040898e+01 -5.225611e+00 -3.904648e+00 -8.404224e+00 -1.000431e+01 -2.156634e+00 -4.738216e+00 -7.203561e+00 5.556925e+01 2.744440e-01 1.246247e+00 9.605080e-02 9.385080e-01 1.599246e-01 -1.686691e-01 6.682548e-01 -1.094228e+00 -4.550918e-01 5.579960e-01 -2.522214e-01 1.192692e-01 -1.058828e+00 -1.323034e-01 -6.298999e-02 -1.997918e-01 -4.306405e-02 2.934655e-01 4.591416e-02 -8.495723e-02 3.694057e-01 2.311081e-01 -1.544598e-01 2.313310e-03 7.781927e-02 4.607986e-02
<VARIANCE> 39
 1.180166e+01 4.100148e+01 3.205200e+01 8.459868e+01 4.945334e+01 5.012858e+01 5.859405e+01 9.927461e+01 6.413619e+01 6.299180e+01 8.068590e+01 4.668820e+01 3.926850e+01 8.126256e-01 1.877288e+00 1.980083e+00 2.948724e+00 2.276810e+00 2.651188e+00 2.929730e+00 4.458343e+00 3.570045e+00 3.109642e+00 2.541448e+00 2.022062e+00 1.332356e+00 1.506084e-01 2.878968e-01 3.890187e-01 6.372340e-01 4.391564e-01 5.098223e-01 5.585893e-01 8.842841e-01 6.446284e-01 5.398194e-01 5.000403e-01 3.840663e-01 1.791129e-01
<MIXTURE> 2 4.852687e-01
<MEAN> 39
 2.203444e+00 -3.218304e+00 7.086854e+00 -6.800449e+00 -1.396263e+01 -8.447408e+00 -5.975093e+00 -1.389658e+01 -1.402388e+01 -6.037889e+00 -1.073153e+01 -6.096800e+00 5.422597e+01 3.937377e-01 1.244543e+00 -5.787584e-03 7.357375e-01 -2.001738e-01 -1.710751e-01 6.760680e-02 -1.420230e+00 -2.106394e-01 2.808391e-01 -4.037763e-01 -1.160941e-01 -1.028411e+00 -1.227270e-01 -1.410759e-01 -1.944141e-01 8.676194e-02 2.854738e-01 -6.175512e-02 -1.120197e-01 3.981420e-01 6.322366e-02 -2.354414e-01 3.252326e-02 -3.280076e-02 6.855251e-02
<VARIANCE> 39
 1.324196e+01 4.442546e+01 3.032586e+01 8.992362e+01 4.472351e+01 5.975555e+01 5.667541e+01 9.948343e+01 6.998884e+01 6.325874e+01 7.610500e+01 5.196603e+01 4.145510e+01 9.406352e-01 2.026903e+00 2.057667e+00 3.230233e+00 2.465450e+00 3.268835e+00 2.813847e+00 4.548770e+00 3.253444e+00 3.405787e+00 2.690119e+00 2.321326e+00 1.250960e+00 1.668487e-01 2.918322e-01 4.046869e-01 7.169031e-01 4.567620e-01 6.115681e-01 5.290031e-01 9.127167e-01 6.198081e-01 5.526958e-01 5.143402e-01 4.375511e-01 1.678109e-01
<STATE> 3
<NUMMIXES> 2
<MIXTURE> 1 5.122838e-01
<MEAN> 39
 4.037368e+00 1.240614e+00 8.789932e+00 2.149473e+00 -1.040749e+01 -7.567860e+00 -2.856227e+00 -1.244484e+01 -1.174808e+01 -1.243108e+00 -7.619061e+00 -6.745029e+00 5.135695e+01 -7.346270e-01 3.517609e-01 1.413487e-02 3.242849e-01 1.269637e+00 4.101374e-01 -8.747771e-02 1.033439e+00 4.342190e-01 -3.972637e-01 3.139566e-01 2.379437e-01 -2.610760e-01 -8.025231e-01 -6.575231e-01 -3.438456e-01 -5.017163e-01 5.333706e-01 4.047831e-01 -2.515743e-01 1.147546e+00 6.855259e-01 -2.980802e-01 3.482163e-01 1.819043e-01 3.255358e-01
<VARIANCE> 39
 1.190567e+01 3.249536e+01 2.358016e+01 5.907059e+01 5.258760e+01 5.522501e+01 6.184714e+01 7.352604e+01 6.470719e+01 7.723884e+01 7.350383e+01 4.427311e+01 3.256400e+01 2.890210e+00 4.905628e+00 2.149996e+00 4.266809e+00 4.542384e+00 3.850104e+00 4.438197e+00 6.328444e+00 4.575137e+00 3.895670e+00 3.810148e+00 3.072673e+00 4.307345e+00 4.780164e-01 5.073503e-01 4.701902e-01 6.726624e-01 7.847369e-01 7.473298e-01 8.966769e-01 8.995528e-01 9.730212e-01 9.512607e-01 7.814124e-01 5.709943e-01 3.497657e-01
<MIXTURE> 2 4.877162e-01
<MEAN> 39
 2.981600e+00 1.135290e+00 7.057993e+00 -2.437015e+00 -1.382302e+01 -1.053317e+01 -5.547959e+00 -1.689137e+01 -1.418241e+01 -5.523204e+00 -1.160694e+01 -4.669096e+00 5.026875e+01 -5.983510e-01 -3.276100e-01 -1.450357e-01 1.237970e-01 9.253291e-01 -3.802907e-02 -5.257371e-01 1.255447e+00 -7.905427e-02 -8.533812e-01 1.157126e-01 -3.486091e-01 2.560278e-01 -7.144370e-01 -7.439577e-01 -3.989160e-01 -4.064259e-01 5.595324e-01 3.617867e-01 -1.258456e-01 1.213398e+00 3.707732e-01 -2.375871e-01 3.433574e-01 -6.374376e-02 3.467332e-01
<VARIANCE> 39
 1.159345e+01 3.261882e+01 2.155091e+01 5.720635e+01 4.748925e+01 6.021418e+01 6.017640e+01 7.097257e+01 6.748565e+01 7.504371e+01 6.745695e+01 5.137401e+01 3.136911e+01 3.206856e+00 4.711899e+00 2.064539e+00 4.578973e+00 4.752619e+00 4.278126e+00 4.233993e+00 8.321621e+00 4.299650e+00 4.029950e+00 4.051948e+00 3.182479e+00 4.492716e+00 4.269152e-01 4.651421e-01 4.622429e-01 6.574094e-01 7.493664e-01 7.877019e-01 8.749480e-01 9.572350e-01 9.369507e-01 9.310193e-01 7.224114e-01 6.804395e-01 3.487547e-01
<STATE> 4
<NUMMIXES> 2
<MIXTURE> 1 5.070873e-01
<MEAN> 39
 -4.212332e+00 -2.654885e+00 5.137939e+00 8.919799e-01 -3.449308e+00 -3.612716e+00 -3.192698e+00 -1.345908e+00 -5.637673e+00 -4.778389e+00 -4.448224e+00 -4.242774e+00 4.689960e+01 -1.484431e+00 -7.667497e-01 -1.034618e+00 -5.129615e-01 1.087514e+00 1.126722e+00 3.034873e-01 1.835253e+00 1.679538e+00 1.715898e-01 8.359624e-01 6.242875e-01 -2.145162e-01 4.312578e-02 -5.514332e-03 -7.947019e-02 -4.764453e-02 -1.456217e-01 8.542794e-03 1.467566e-01 -2.447284e-01 4.021113e-02 2.106545e-01 5.840952e-02 8.545909e-02 1.168364e-01
<VARIANCE> 39
 4.139207e+01 5.753081e+01 4.016738e+01 5.747949e+01 4.960246e+01 4.236105e+01 6.307902e+01 7.369694e+01 7.424363e+01 5.611349e+01 4.471715e+01 4.132325e+01 1.145885e+02 3.734314e+00 4.365487e+00 3.001329e+00 4.567427e+00 4.263089e+00 3.988286e+00 5.223083e+00 6.384317e+00 5.881534e+00 5.504685e+00 4.818097e+00 3.118913e+00 5.279277e+00 4.293915e-01 6.613051e-01 5.373830e-01 7.387782e-01 6.684267e-01 6.330689e-01 8.378044e-01 9.853989e-01 9.235063e-01 7.292394e-01 6.454212e-01 5.475210e-01 6.640352e-01
<MIXTURE> 2 4.929127e-01
<MEAN> 39
 -3.869793e+00 -5.177253e+00 4.314675e+00 -2.696010e+00 -5.471739e+00 -5.759533e+00 -4.780775e+00 -2.104242e+00 -8.222084e+00 -6.974532e+00 -6.443832e+00 -4.367093e+00 5.037233e+01 -1.441989e+00 -1.633032e+00 -1.496727e+00 -1.001407e+00 9.154821e-01 7.350483e-01 -3.209839e-01 1.935149e+00 9.400232e-01 -6.667323e-01 3.427405e-01 2.373684e-03 6.042631e-01 4.575110e-02 4.552693e-02 -1.996684e-01 1.807551e-02 -2.045613e-01 -2.031137e-02 2.627015e-02 -5.019089e-01 5.665089e-02 1.639383e-01 -1.478527e-02 -1.045899e-02 -1.172384e-02
<VARIANCE> 39
 3.745929e+01 6.522744e+01 3.718722e+01 8.397235e+01 5.132545e+01 5.263353e+01 6.203449e+01 7.222533e+01 8.813244e+01 6.419752e+01 5.275568e+01 4.131880e+01 1.236489e+02 3.875662e+00 4.823210e+00 3.208156e+00 4.570194e+00 5.248069e+00 4.509560e+00 4.874388e+00 8.066278e+00 6.228932e+00 5.206501e+00 5.022285e+00 3.530658e+00 6.358553e+00 3.933992e-01 6.964213e-01 5.216105e-01 8.525683e-01 7.085716e-01 7.553289e-01 8.311770e-01 1.136878e+00 8.932341e-01 7.591035e-01 6.922822e-01 5.602679e-01 7.486394e-01
<TRANSP> 5
0.000000e+00 0.000000e+00 0.000000e+00 0.000000e+00 0.000000e+00 
0.000000e+00 2.084287e+03 1.068273e+08 0.000000e+00 0.000000e+00 
0.000000e+00 0.000000e+00 4.916237e+04 1.733026e+06 0.000000e+00 
0.000000e+00 0.000000e+00 0.000000e+00 2.713795e+07 9.466645e+00 
0.000000e+00 0.000000e+00 0.000000e+00 0.000000e+00 0.000000e+00 
<ENDHMM>
~h "r"
<BEGINHMM>
<NUMSTATES> 5
<STATE> 2
<NUMMIXES> 2
<MIXTURE> 1 5.046157e-01
<MEAN> 39
 5.142483e+00 -1.178663e+01 5.109660e+00 -2.537800e+00 -9.821654e+00 -1.342964e+01 -1.671296e+01 9.327167e-01 -5.571963e+00 -4.459443e+00 1.193942e+00 -3.696187e+00 6.218429e+01 9.130161e-01 -1.145365e+00 -1.074960e+00 1.498938e+00 8.357449e-01 -1.798024e+00 -1.053672e+00 1.883787e+00 8.302350e-01 -7.048487e-01 -1.312996e-01 3.875767e-01 -2.672721e-02 -3.879238e-01 4.646425e-01 -1.490640e-02 -5.848674e-02 2.542496e-01 1.653760e-01 3.487601e-01 -3.403469e-03 1.404798e-01 2.502708e-02 -2.194960e-01 1.654365e-01 -1.376441e-01
<VARIANCE> 39
 2.440462e+01 2.603827e+01 1.849264e+02 6.325950e+01 1.156556e+02 1.024837e+02 1.093172e+02 6.119129e+01 1.188197e+02 7.196896e+01 6.425826e+01 3.678586e+01 2.453554e+01 1.691208e+00 1.100496e+00 5.876293e+00 1.947383e+00 4.663986e+00 3.016674e+00 3.283953e+00 4.041978e+00 3.399591e+00 3.645460e+00 3.062006e+00 1.916225e+00 7.922628e-01 3.770003e-01 2.486896e-01 1.270723e+00 3.761972e-01 1.271174e+00 6.836028e-01 1.509419e+00 5.785421e-01 8.415396e-01 6.759626e-01 5.949349e-01 3.776247e-01 7.318375e-02
<MIXTURE> 2 4.953843e-01
<MEAN> 39
 3.714202e+00 -1.285989e+01 2.003871e+00 -7.044292e+00 -1.151861e+01 -1.864528e+01 -1.276716e+01 -3.090082e-01 -1.281660e+01 -1.537922e+00 -3.860847e+00 -7.401722e+00 6.071668e+01 9.088940e-01 -1.363789e+00 -1.275820e+00 1.489825e+00 9.298662e-01 -2.528734e+00 -9.300549e-01 2.236817e+00 2.988155e-01 -1.174104e+00 -4.122008e-01 -1.343816e-01 -2.291365e-02 -3.205572e-01 4.118179e-01 6.526459e-02 -1.516101e-01 1.035016e-01 3.375703e-01 1.972950e-01 -1.315639e-01 2.245299e-01 -1.685652e-01 -1.531557e-01 2.241079e-01 -1.379575e-01
<VARIANCE> 39
 2.181391e+01 2.384285e+01 1.652735e+02 5.986417e+01 1.037530e+02 1.008084e+02 1.007305e+02 5.624239e+01 1.056571e+02 6.962720e+01 6.580968e+01 3.699873e+01 2.165230e+01 1.597595e+00 1.190892e+00 5.899535e+00 2.430394e+00 4.219713e+00 3.197027e+00 3.428679e+00 3.321365e+00 4.358531e+00 3.379364e+00 3.186101e+00 2.049270e+00 8.800862e-01 3.902396e-01 2.190561e-01 1.310067e+00 3.483420e-01 1.240056e+00 6.847164e-01 1.502015e+00 5.403308e-01 8.035985e-01 7.408771e-01 6.088106e-01 4.071320e-01 8.675151e-02
<STATE> 3
<NUMMIXES> 2
<MIXTURE> 1 5.337663e-01
<MEAN> 39
 8.824487e+00 -1.196121e+01 -4.057101e+00 -1.130864e+00 -2.806742e+00 -1.300716e+01 -2.179219e+01 3.403869e+00 2.385440e-01 -3.938632e+00 3.571510e-02 -2.353565e+00 6.131384e+01 7.929765e-02 -8.927059e-02 -5.449098e-01 -1.505359e-01 7.938695e-02 2.212475e-01 3.435990e-01 5.621181e-01 4.764415e-02 1.938425e-01 1.518663e-01 2.129595e-02 5.646044e-02 -2.795233e-01 1.056690e-01 5.231574e-01 -1.957139e-01 -4.066329e-01 2.740117e-01 5.980834e-01 -1.618821e-01 -3.440810e-01 7.083571e-02 2.222979e-01 -8.930377e-02 4.091261e-02
<VARIANCE> 39
 1.094944e+01 2.775129e+01 9.036934e+01 4.821283e+01 7.039641e+01 9.980277e+01 9.511738e+01 8.676650e+01 9.665953e+01 5.349359e+01 5.634012e+01 3.891335e+01 2.311016e+01 1.021746e+00 1.022504e+00 6.309700e+00 1.856146e+00 5.092957e+00 3.038876e+00 4.205391e+00 3.351148e+00 3.525517e+00 3.095869e+00 2.303715e+00 1.611044e+00 6.815826e-01 8.445115e-02 1.960818e-01 2.416285e-01 2.374680e-01 3.186209e-01 4.625205e-01 4.929771e-01 6.099735e-01 4.255171e-01 4.190984e-01 3.044912e-01 2.701153e-01 7.504778e-02
<MIXTURE> 2 4.662337e-01
<MEAN> 39
 7.002684e+00 -1.363302e+01 -5.766760e+00 -4.441626e+00 -5.048633e+00 -2.093463e+01 -1.682709e+01 3.972790e+00 -8.264437e+00 -4.224127e+00 -5.031786e+00 -6.792808e+00 5.931242e+01 1.888872e-02 -3.924578e-01 -3.767309e-01 -9.377648e-02 3.267194e-02 -1.313295e-01 2.439316e-01 7.022658e-01 -9.506160e-02 -2.846560e-01 -2.938862e-01 -2.002131e-01 1.328037e-01 -3.228408e-01 1.382640e-01 5.714808e-01 -2.892277e-01 -5.075739e-01 4.264331e-01 5.491570e-01 -3.972868e-01 -3.431469e-01 1.757769e-01 8.150090e-02 -1.064156e-01 4.991905e-02
<VARIANCE> 39
 9.340889e+00 2.598459e+01 7.732242e+01 3.915283e+01 6.213478e+01 9.548036e+01 8.301075e+01 6.846421e+01 9.961642e+01 4.912185e+01 6.004380e+01 3.522766e+01 2.193469e+01 1.014367e+00 1.032853e+00 6.260912e+00 1.493397e+00 5.136433e+00 3.251029e+00 4.313175e+00 3.091946e+00 3.573688e+00 2.918852e+00 2.253496e+00 1.599122e+00 7.456711e-01 9.205447e-02 2.098203e-01 2.630007e-01 2.128406e-01 3.625116e-01 4.898554e-01 4.658203e-01 6.194493e-01 3.867320e-01 4.053754e-01 3.364460e-01 2.727575e-01 7.827364e-02
<STATE> 4
<NUMMIXES> 2
<MIXTURE> 1 5.222369e-01
<MEAN> 39
 3.029850e+00 -8.873241e+00 -1.789984e+00 -4.452647e-02 -3.460551e+00 -1.041482e+01 -1.154426e+01 3.795057e+00 -4.446680e+00 -5.195143e+00 -1.887292e+00 -3.430646e+00 5.571965e+01 -2.132917e+00 9.100686e-01 2.865938e+00 7.501762e-01 -8.910947e-01 9.084893e-01 2.626518e+00 -5.444704e-01 -3.584012e-01 2.953844e-01 5.030149e-01 1.685483e-01 -1.017342e+00 -3.552263e-01 3.340530e-01 -1.652928e-02 -2.833681e-01 1.369044e-01 5.871075e-01 1.977262e-01 -3.698699e-01 9.148420e-02 3.433527e-01 1.619803e-01 -2.690713e-02 -1.633816e-01
<VARIANCE> 39
 4.387649e+01 4.668407e+01 9.985802e+01 6.608089e+01 1.134375e+02 1.219949e+02 1.155298e+02 7.717188e+01 1.022429e+02 6.707172e+01 6.859024e+01 4.147653e+01 8.966566e+01 3.114897e+00 3.533417e+00 4.795669e+00 5.957977e+00 7.074241e+00 5.068150e+00 5.764099e+00 5.495150e+00 7.914191e+00 5.332564e+00 4.934101e+00 3.647573e+00 3.133098e+00 6.128070e-01 6.877883e-01 7.467591e-01 6.726656e-01 8.559797e-01 9.960418e-01 1.235445e+00 1.154308e+00 9.139404e-01 8.279218e-01 7.510227e-01 5.765686e-01 4.352285e-01
<MIXTURE> 2 4.777631e-01
<MEAN> 39
 2.031791e+00 -1.179402e+01 -1.459489e+00 -1.655960e+00 -6.488009e+00 -1.582510e+01 -9.595459e+00 3.699543e+00 -9.682627e+00 -5.603533e+00 -4.075383e+00 -5.307963e+00 5.569552e+01 -1.762395e+00 4.185178e-01 2.645494e+00 -3.320119e-01 -1.863622e+00 8.103167e-01 2.117909e+00 -1.165654e+00 -1.045722e+00 3.080317e-01 2.394006e-01 -2.284969e-01 -4.992416e-01 -1.973030e-01 4.645530e-01 -8.479810e-02 -4.375982e-01 1.582412e-01 6.599909e-01 -1.310625e-01 -7.428247e-01 2.350760e-01 3.553276e-01 -1.131794e-01 -1.156839e-01 -1.510530e-01
<VARIANCE> 39
 3.628984e+01 4.696040e+01 9.448343e+01 7.091201e+01 1.170296e+02 1.650587e+02 9.717659e+01 6.909942e+01 1.274173e+02 7.119628e+01 6.602955e+01 4.006301e+01 8.642799e+01 2.191884e+00 3.035688e+00 4.879682e+00 5.027691e+00 6.155417e+00 4.689168e+00 5.289522e+00 5.910771e+00 6.466814e+00 5.982877e+00 3.988635e+00 3.244336e+00 3.279568e+00 4.125310e-01 6.303306e-01 6.120642e-01 5.491634e-01 7.979850e-01 1.091339e+00 1.013437e+00 1.190465e+00 9.611391e-01 7.238390e-01 6.857056e-01 4.805749e-01 4.175637e-01
<TRANSP> 5
0.000000e+00 0.000000e+00 0.000000e+00 0.000000e+00 0.000000e+00 
0.000000e+00 5.306661e+01 2.481487e+02 0.000000e+00 0.000000e+00 
0.000000e+00 0.000000e+00 3.878316e+02 1.163298e+08 0.000000e+00 
0.000000e+00 0.000000e+00 0.000000e+00 6.863864e+06 5.142870e+00 
0.000000e+00 0.000000e+00 0.000000e+00 0.000000e+00 0.000000e+00 
<ENDHMM>
~h "s"
<BEGINHMM>
<NUMSTATES> 5
<STATE> 2
<NUMMIXES> 2
<MIXTURE> 1 5.092127e-01
<MEAN> 39
 -1.811193e+01 2.425945e+00 2.013217e+00 -1.382016e-01 -1.729085e+00 -6.582206e+00 -2.177309e+00 -1.080016e+00 -3.061379e+00 -3.541311e+00 -7.667583e-01 -2.344923e+00 5.254404e+01 -4.269470e+00 1.049271e+00 -1.306897e+00 4.774473e-02 1.359935e+00 1.235124e+00 1.835022e+00 1.391934e+00 1.219327e+00 6.975797e-01 1.168072e+00 8.100642e-01 2.565918e-01 3.535900e-01 -3.651641e-01 -3.614748e-01 -2.631663e-01 -1.998183e-01 1.716040e-01 -2.216801e-01 6.997578e-03 2.873872e-02 2.899620e-01 3.586660e-02 2.789740e-02 -1.209319e-01
<VARIANCE> 39
 8.465091e+01 3.933571e+01 6.925981e+01 4.231936e+01 6.007497e+01 5.267627e+01 5.500218e+01 5.644326e+01 4.612236e+01 3.798651e+01 3.339100e+01 2.521590e+01 6.485296e+01 6.641580e+00 4.663178e+00 5.960886e+00 5.891124e+00 5.155152e+00 5.622766e+00 5.708746e+00 5.070187e+00 4.839114e+00 4.355000e+00 4.795217e+00 2.755541e+00 2.940198e+00 1.281617e+00 8.105095e-01 9.191194e-01 8.241987e-01 9.309680e-01 8.841515e-01 9.278717e-01 8.945849e-01 7.549408e-01 8.033707e-01 7.052846e-01 5.452410e-01 3.977013e-01
<MIXTURE> 2 4.907873e-01
<MEAN> 39
 -2.059704e+01 2.038134e+00 4.487676e-01 -7.578291e-01 -1.605387e+00 -6.234537e+00 -1.230288e+00 -5.038532e-01 -2.956077e+00 -3.516678e+00 -7.533840e-01 -2.354050e+00 5.174400e+01 -3.729362e+00 5.324801e-01 -1.736036e+00 -4.806544e-01 5.203361e-01 7.085733e-01 8.823476e-01 6.882803e-01 5.593837e-01 2.135883e-01 7.178833e-01 3.216410e-01 2.763492e-01 6.465299e-01 -3.442278e-01 -2.224205e-01 -1.520302e-01 -3.137407e-01 2.120223e-02 -3.729298e-01 -2.184806e-01 -1.111475e-01 2.091794e-01 -7.307219e-02 -4.740363e-02 -1.827117e-01
<VARIANCE> 39
 6.621168e+01 4.118007e+01 6.030315e+01 4.218739e+01 6.240827e+01 4.782684e+01 4.898906e+01 5.668692e+01 4.293327e+01 3.538288e+01 3.305490e+01 2.512366e+01 6.332066e+01 6.451147e+00 4.221695e+00 5.309662e+00 5.360785e+00 4.147782e+00 4.825596e+00 4.771669e+00 4.677260e+00 4.590712e+00 3.972338e+00 3.882661e+00 2.738706e+00 3.254704e+00 1.148849e+00 7.565186e-01 8.237995e-01 7.751714e-01 9.319730e-01 8.337855e-01 8.771863e-01 8.403286e-01 7.416308e-01 7.593062e-01 7.034004e-01 5.373568e-01 3.920327e-01
<STATE> 3
<NUMMIXES> 2
<MIXTURE> 1 4.912324e-01
<MEAN> 39
 -2.874414e+01 1.968655e+00 -6.390498e+00 -1.396500e+00 -1.466026e+00 -3.563092e+00 5.389096e-02 1.497625e+00 -3.370364e-01 -5.020933e-01 1.831251e+00 -4.075676e-01 5.333309e+01 -1.931406e-01 1.210051e-01 -2.368167e-01 1.179901e-02 1.560463e-01 3.695039e-01 2.004011e-01 1.306345e-01 1.986771e-01 3.104942e-01 1.811194e-01 1.895123e-01 1.125108e-01 5.379778e-01 -6.058779e-02 3.300479e-01 6.128890e-02 -1.029015e-02 -1.116794e-01 -4.701880e-02 -5.834265e-02 -1.488428e-02 -5.905871e-02 -8.543181e-02 -7.615352e-02 3.173940e-02
<VARIANCE> 39
 1.484529e+01 2.199619e+01 4.077360e+01 5.652922e+01 4.952777e+01 3.685700e+01 2.644245e+01 2.641935e+01 2.005330e+01 1.857781e+01 1.869043e+01 1.468277e+01 2.563480e+01 9.442266e-01 1.090194e+00 1.211862e+00 1.246768e+00 1.362320e+00 1.624786e+00 1.532694e+00 1.642363e+00 1.651374e+00 1.601416e+00 1.455433e+00 1.373364e+00 6.044727e-01 2.988121e-01 2.308980e-01 2.653339e-01 2.851221e-01 2.945581e-01 3.351540e-01 3.400781e-01 3.541644e-01 3.546042e-01 3.384462e-01 3.132098e-01 2.930815e-01 1.250803e-01
<MIXTURE> 2 5.087676e-01
<MEAN> 39
 -2.879804e+01 1.547216e+00 -6.502510e+00 -1.143974e+00 -1.964811e+00 -3.424738e+00 -9.245050e-02 1.291968e+00 -5.064039e-01 -6.919801e-01 1.675087e+00 -8.102734e-01 5.260068e+01 -3.355655e-01 -1.207452e-01 -5.035513e-01 -3.030177e-01 -2.437280e-01 8.919388e-02 -2.038912e-01 -2.246226e-01 -1.465231e-01 -5.605598e-03 -1.364705e-01 -8.249883e-02 6.135934e-03 5.671490e-01 -1.103067e-01 2.595767e-01 -4.289661e-02 -1.177259e-01 -2.399259e-01 -1.708485e-01 -1.891318e-01 -1.267585e-01 -1.343160e-01 -1.722022e-01 -1.171712e-01 3.098755e-02
<VARIANCE> 39
 1.390660e+01 2.190152e+01 3.962430e+01 5.349882e+01 4.972246e+01 3.596837e+01 2.595786e+01 2.669688e+01 2.058878e+01 1.915388e+01 1.919235e+01 1.487728e+01 2.410381e+01 1.040588e+00 1.112793e+00 1.301263e+00 1.306498e+00 1.390806e+00 1.697984e+00 1.588418e+00 1.678742e+00 1.707773e+00 1.618062e+00 1.476939e+00 1.385924e+00 6.507955e-01 3.334651e-01 2.263435e-01 2.707959e-01 2.799050e-01 2.986827e-01 3.442357e-01 3.568744e-01 3.803474e-01 3.825081e-01 3.509815e-01 3.282449e-01 2.941582e-01 1.286061e-01
<STATE> 4
<NUMMIXES> 2
<MIXTURE> 1 5.451868e-01
<MEAN> 39
 -2.248900e+01 -1.483934e-01 -2.910513e+00 -2.279835e+00 -9.763802e-01 -5.402262e+00 -5.799326e-01 1.870932e+00 2.003805e-01 -4.760988e-01 6.265502e-01 -6.845538e-01 5.009802e+01 2.155596e+00 -1.437034e-01 1.022485e+00 2.282538e-01 -7.146302e-02 1.443077e-01 -1.134725e-02 -8.974181e-02 1.553467e-01 3.494364e-01 -1.039316e-01 -8.696679e-02 -7.635760e-01 7.722378e-01 -1.349482e-01 3.318019e-01 2.510129e-02 -2.626096e-01 -1.688024e-01 -2.826875e-01 -9.561344e-02 -3.979642e-02 -1.961731e-02 -1.052502e-01 -1.508031e-01 1.317667e-01
<VARIANCE> 39
 7.438207e+01 3.111329e+01 3.967830e+01 4.518348e+01 5.231483e+01 5.191797e+01 4.139296e+01 3.515962e+01 3.308329e+01 3.136664e+01 2.860642e+01 2.500036e+01 7.790068e+01 4.943653e+00 2.968693e+00 2.784901e+00 2.924565e+00 4.013379e+00 4.424532e+00 3.405118e+00 3.301535e+00 3.165479e+00 2.923260e+00 2.721654e+00 2.591690e+00 4.183299e+00 1.549786e+00 5.788368e-01 6.299007e-01 6.153039e-01 7.930409e-01 9.998874e-01 9.056978e-01 7.131268e-01 6.995767e-01 6.510915e-01 6.156138e-01 5.586726e-01 7.155782e-01
<MIXTURE> 2 4.548132e-01
<MEAN> 39
 -2.286789e+01 -3.552876e-01 -4.593092e+00 -1.133456e+00 -2.895016e+00 -4.392424e+00 -5.631399e-01 5.108353e-01 -8.254116e-01 -1.159847e+00 4.385265e-01 -1.429711e+00 5.016443e+01 2.463902e+00 -3.672403e-01 9.193385e-01 -6.260393e-01 -8.036307e-01 -7.803636e-01 -6.545287e-01 -9.530101e-01 -7.417218e-01 -5.147236e-01 -8.721083e-01 -5.498637e-01 1.329533e-02 9.407564e-01 -2.216363e-01 3.345639e-01 -2.575322e-01 -5.358224e-01 -5.544623e-01 -4.184808e-01 -2.582193e-01 -2.117483e-01 -1.494137e-01 -3.487450e-01 -1.217671e-01 2.763003e-01
<VARIANCE> 39
 6.650182e+01 3.098328e+01 4.249970e+01 4.135102e+01 4.997743e+01 5.058034e+01 3.462809e+01 3.328475e+01 3.038980e+01 2.848873e+01 2.968912e+01 2.329800e+01 5.900307e+01 4.958900e+00 3.071297e+00 2.625955e+00 3.323452e+00 3.668823e+00 4.330457e+00 3.579434e+00 3.455686e+00 3.157829e+00 2.825419e+00 3.132502e+00 2.469494e+00 4.275884e+00 1.296385e+00 5.723146e-01 6.304004e-01 6.600005e-01 7.357015e-01 1.088298e+00 7.846924e-01 7.173121e-01 6.974308e-01 6.467712e-01 6.631396e-01 5.102448e-01 7.260787e-01
<TRANSP> 5
0.000000e+00 0.000000e+00 0.000000e+00 0.000000e+00 0.000000e+00 
0.000000e+00 4.897513e+02 9.360114e+02 0.000000e+00 0.000000e+00 
0.000000e+00 0.000000e+00 1.927258e+03 8.510379e+10 0.000000e+00 
0.000000e+00 0.000000e+00 0.000000e+00 1.967836e+08 1.780500e+02 
0.000000e+00 0.000000e+00 0.000000e+00 0.000000e+00 0.000000e+00 
<ENDHMM>
~h "t"
<BEGINHMM>
<NUMSTATES> 5
<STATE> 2
<NUMMIXES> 2
<MIXTURE> 1 4.910516e-01
<MEAN> 39
 -5.984554e+00 4.466423e+00 9.824465e+00 3.096849e+00 -6.393687e+00 -7.137264e+00 -6.833654e+00 -6.434893e+00 -6.804490e+00 -4.068086e+00 -2.264971e+00 -3.424902e+00 4.080963e+01 -2.152633e+00 1.016719e+00 -2.464073e+00 1.160118e+00 2.787024e+00 1.531460e+00 1.833780e+00 1.480173e+00 2.173767e+00 5.868187e-01 8.285418e-01 9.031026e-01 -3.679805e+00 -2.920623e-01 -8.388227e-01 -1.321891e-01 -9.345991e-01 -2.039790e-01 3.323758e-01 9.374512e-02 3.618161e-01 2.424586e-01 5.581098e-01 2.374270e-01 1.519231e-01 9.243697e-01
<VARIANCE> 39
 3.390821e+01 4.483893e+01 5.596921e+01 5.078010e+01 6.053663e+01 3.857691e+01 4.032785e+01 4.449745e+01 4.505558e+01 4.219986e+01 3.912423e+01 3.239770e+01 6.673981e+01 3.792598e+00 7.927115e+00 8.340419e+00 7.080976e+00 6.069807e+00 4.595609e+00 4.737541e+00 6.226699e+00 5.629619e+00 5.942228e+00 7.021929e+00 3.654810e+00 8.349463e+00 5.958259e-01 1.260143e+00 1.193529e+00 9.068734e-01 1.221292e+00 8.640389e-01 8.320279e-01 8.455591e-01 9.375973e-01 9.612673e-01 9.506887e-01 6.669336e-01 1.808846e+00
<MIXTURE> 2 5.089484e-01
<MEAN> 39
 -5.642697e+00 4.823301e+00 9.301808e+00 1.467985e+00 -8.256012e+00 -8.413149e+00 -7.399207e+00 -8.274100e+00 -8.217142e+00 -4.762190e+00 -4.025525e+00 -4.001310e+00 4.031980e+01 -1.670017e+00 6.440924e-01 -2.986200e+00 1.241441e+00 2.437336e+00 9.982129e-01 9.057827e-01 1.001183e+00 1.267264e+00 -3.973084e-01 5.824658e-01 1.039178e-01 -3.120822e+00 -4.242767e-01 -9.462033e-01 1.982294e-02 -1.067571e+00 -2.649797e-01 2.438721e-01 2.356737e-02 2.566390e-01 1.966904e-01 5.842280e-01 1.477601e-01 1.599631e-01 1.152211e+00
<VARIANCE> 39
 2.664338e+01 4.739172e+01 5.128493e+01 5.177994e+01 6.276242e+01 3.971979e+01 4.013453e+01 4.342353e+01 4.410923e+01 4.767400e+01 4.317563e+01 3.719297e+01 5.411737e+01 4.206179e+00 7.923172e+00 7.266277e+00 7.923112e+00 6.108832e+00 4.529908e+00 4.734601e+00 6.236619e+00 5.465332e+00 6.715506e+00 6.357743e+00 3.975231e+00 8.859302e+00 5.941875e-01 1.268521e+00 1.139985e+00 9.521994e-01 1.274936e+00 8.475757e-01 9.076402e-01 9.165244e-01 9.565531e-01 1.068591e+00 9.797046e-01 7.343277e-01 1.648670e+00
<STATE> 3
<NUMMIXES> 2
<MIXTURE> 1 5.198069e-01
<MEAN> 39
 -1.463456e+01 -7.218994e-02 2.046078e+00 1.580218e-02 -4.967851e-01 -8.559016e-01 -6.723764e-01 3.490503e-01 8.333612e-01 9.468352e-01 1.798077e+00 -1.380018e-01 3.583010e+01 -1.112158e+00 -1.033658e+00 -5.421661e-01 -1.144809e+00 2.388095e-01 4.448626e-01 7.178799e-01 9.792310e-01 8.045936e-01 8.256812e-01 8.126412e-01 3.931412e-01 1.973199e+00 1.806604e-01 8.396935e-02 4.257678e-01 -1.802385e-01 -4.323514e-01 -3.961940e-01 -1.224886e-01 -2.435563e-01 -4.578652e-01 -1.660382e-01 -1.589742e-01 -1.399453e-01 1.114723e+00
<VARIANCE> 39
 1.462093e+01 3.440680e+01 1.992177e+01 3.091686e+01 2.223803e+01 2.349775e+01 2.510118e+01 2.392922e+01 2.547674e+01 2.065615e+01 1.776478e+01 1.658732e+01 9.188990e+01 3.179405e+00 4.113192e+00 3.151504e+00 4.192557e+00 3.416640e+00 3.447779e+00 3.916866e+00 3.969196e+00 4.446315e+00 3.415763e+00 2.950956e+00 2.439879e+00 2.039248e+01 5.277055e-01 9.244380e-01 6.837254e-01 8.178442e-01 7.106974e-01 6.008378e-01 6.751916e-01 7.152513e-01 6.981472e-01 5.886377e-01 5.646361e-01 4.292328e-01 2.610887e+00
<MIXTURE> 2 4.801931e-01
<MEAN> 39
 -1.473593e+01 -1.058285e+00 1.379458e+00 -1.275986e+00 -1.100591e+00 -1.619435e+00 -1.451227e+00 -3.512424e-01 1.394838e-01 6.460639e-01 1.243160e+00 -7.224728e-01 3.706998e+01 -1.233986e+00 -1.717263e+00 -8.023572e-01 -1.960971e+00 -3.339342e-01 -3.188723e-01 2.821394e-02 1.658361e-01 -2.183737e-01 1.543164e-01 2.203119e-01 -1.320810e-01 3.861550e+00 4.049406e-02 2.022697e-01 4.130367e-01 -2.219659e-01 -5.397852e-01 -4.960430e-01 -1.494524e-01 -3.331728e-01 -5.816855e-01 -2.118409e-01 -1.895122e-01 -1.719967e-01 1.271884e+00
<VARIANCE> 39
 1.549796e+01 3.946222e+01 2.025321e+01 3.421926e+01 2.218687e+01 2.275614e+01 2.389105e+01 2.453283e+01 2.717879e+01 2.122855e+01 1.723593e+01 1.650599e+01 1.016557e+02 3.686455e+00 4.092374e+00 3.460228e+00 4.247960e+00 3.409715e+00 3.492256e+00 3.802582e+00 3.772017e+00 4.417876e+00 3.241513e+00 2.947558e+00 2.399107e+00 1.695922e+01 5.624819e-01 1.039656e+00 6.720955e-01 8.818789e-01 6.665526e-01 6.034904e-01 7.272911e-01 7.691220e-01 7.122931e-01 5.998801e-01 5.740796e-01 4.340453e-01 2.677986e+00
<STATE> 4
<NUMMIXES> 2
<MIXTURE> 1 5.244131e-01
<MEAN> 39
 -1.980514e+01 -1.471227e+00 3.177473e+00 -6.673019e+00 -3.986144e+00 -4.896956e+00 7.299774e-01 8.838310e-01 -2.888387e+00 7.603521e-01 3.028698e+00 -4.667229e-01 5.657358e+01 -4.859239e-01 5.452814e-01 1.043905e+00 6.813555e-01 -4.740334e-01 -3.041583e-01 1.209393e+00 8.058259e-01 -1.040655e-01 6.441249e-02 2.688560e-01 3.247790e-01 1.034328e+00 8.812829e-01 6.652343e-02 3.590097e-01 7.477018e-01 1.150665e-02 1.472309e-01 -1.240980e-01 -7.186152e-02 6.578469e-02 -1.510907e-01 -2.358484e-01 -7.202969e-02 -1.429161e+00
<VARIANCE> 39
 4.200723e+01 2.816202e+01 3.826901e+01 3.262714e+01 3.110070e+01 3.029765e+01 3.985678e+01 3.946041e+01 2.857206e+01 3.163995e+01 2.348333e+01 2.154834e+01 7.686231e+01 4.911303e+00 3.306919e+00 3.123153e+00 3.990584e+00 2.950480e+00 3.515256e+00 3.079860e+00 3.304905e+00 3.054646e+00 2.809406e+00 2.396318e+00 2.087518e+00 1.014750e+01 8.244263e-01 7.760393e-01 6.734767e-01 8.988179e-01 6.687579e-01 6.586432e-01 8.614242e-01 7.076135e-01 6.939760e-01 5.963839e-01 5.418884e-01 4.752196e-01 1.782127e+00
<MIXTURE> 2 4.755869e-01
<MEAN> 39
 -1.883895e+01 -2.203334e+00 2.802445e+00 -6.660655e+00 -5.389665e+00 -5.342464e+00 1.366509e+00 -5.636777e-01 -3.578936e+00 9.290204e-01 2.098066e+00 -1.138038e+00 5.320145e+01 1.259556e-01 -3.401789e-01 6.575841e-01 3.044788e-02 -1.173419e+00 -5.752445e-01 4.234236e-01 -7.269744e-02 -8.562763e-01 -4.876531e-01 -4.099229e-01 -1.698440e-01 7.464378e-01 8.670869e-01 3.323045e-02 2.701489e-01 3.860741e-01 -1.580752e-01 -1.102648e-01 -4.409894e-01 -2.852018e-01 -2.012623e-01 -3.315372e-01 -4.137024e-01 -1.473694e-01 -8.004390e-01
<VARIANCE> 39
 6.190768e+01 3.217997e+01 3.575395e+01 3.704587e+01 3.620353e+01 2.987043e+01 4.110356e+01 4.383823e+01 3.267331e+01 3.384033e+01 2.695725e+01 2.247013e+01 9.159568e+01 5.141856e+00 3.157951e+00 3.544426e+00 3.754712e+00 3.116261e+00 3.378983e+00 3.129571e+00 3.601661e+00 3.340606e+00 3.188642e+00 2.958751e+00 2.277950e+00 9.063550e+00 1.020408e+00 7.974001e-01 6.301686e-01 8.732931e-01 7.373703e-01 7.176940e-01 9.003932e-01 7.641532e-01 7.965408e-01 6.922841e-01 6.500099e-01 4.780653e-01 1.850328e+00
<TRANSP> 5
0.000000e+00 0.000000e+00 0.000000e+00 0.000000e+00 0.000000e+00 
0.000000e+00 1.590933e+06 2.902590e+18 0.000000e+00 0.000000e+00 
0.000000e+00 0.000000e+00 9.433337e+10 7.901192e+10 0.000000e+00 
0.000000e+00 0.000000e+00 0.000000e+00 3.514272e+08 4.529580e+09 
0.000000e+00 0.000000e+00 0.000000e+00 0.000000e+00 0.000000e+00 
<ENDHMM>
~h "v"
<BEGINHMM>
<NUMSTATES> 5
<STATE> 2
<NUMMIXES> 2
<MIXTURE> 1 5.180549e-01
<MEAN> 39
 8.573628e-01 -1.563502e+01 1.823058e+00 -1.121049e+01 -9.544607e+00 -7.049914e+00 -5.811477e+00 4.359424e+00 1.561209e+00 -2.903015e+00 -6.660961e+00 -1.040069e+01 6.814534e+01 4.907255e-01 1.191384e-01 1.247425e-01 3.486225e-01 1.200074e-01 -5.187861e-02 -3.610516e-01 -1.506483e-01 -5.855471e-02 4.904337e-01 6.386541e-01 -3.284015e-02 -5.292336e-01 3.095327e-02 5.340138e-01 6.116386e-02 4.539250e-01 2.939526e-01 -6.314204e-03 -3.325391e-01 -5.402500e-01 -2.137987e-01 2.044516e-01 3.790518e-01 2.173211e-01 -5.505586e-01
<VARIANCE> 39
 1.370356e+01 2.290062e+01 3.748123e+01 3.691160e+01 3.993302e+01 4.959960e+01 7.036755e+01 6.005203e+01 9.490816e+01 7.053219e+01 6.915638e+01 5.114667e+01 2.428838e+01 3.068530e-01 1.192516e+00 9.017668e-01 8.553342e-01 1.414112e+00 2.158206e+00 2.300547e+00 1.879083e+00 1.507016e+00 1.640699e+00 1.837523e+00 1.391415e+00 6.349906e-01 1.115168e-01 1.615592e-01 1.697071e-01 2.408680e-01 2.912400e-01 2.770709e-01 3.277187e-01 3.235269e-01 3.826910e-01 2.664566e-01 2.799698e-01 2.341614e-01 1.149592e-01
<MIXTURE> 2 4.819451e-01
<MEAN> 39
 -1.846413e+00 -1.634298e+01 -5.143909e-01 -1.463408e+01 -1.222801e+01 -1.024127e+01 -1.689832e+00 1.033369e+00 -6.341757e+00 -8.551260e+00 -1.218759e+01 -6.814237e+00 6.708028e+01 3.826116e-01 -2.624510e-02 -3.189279e-02 1.367178e-01 8.638233e-02 -2.625629e-01 -3.975559e-01 -1.013948e-01 6.798953e-02 1.353333e-01 -2.297475e-01 -5.874797e-01 -4.432880e-01 4.196950e-02 5.494140e-01 5.081390e-02 5.355924e-01 1.936424e-01 -1.707316e-01 -6.198991e-01 -4.671275e-01 5.737022e-02 2.038242e-01 2.225239e-01 -2.205358e-03 -5.662707e-01
<VARIANCE> 39
 1.147416e+01 2.246843e+01 3.163373e+01 3.785926e+01 4.265461e+01 4.559591e+01 6.293387e+01 5.386106e+01 8.645479e+01 5.534979e+01 4.840644e+01 4.463909e+01 2.258254e+01 3.351913e-01 1.315847e+00 7.993540e-01 8.930520e-01 1.861149e+00 2.719457e+00 2.705452e+00 1.528237e+00 1.684627e+00 1.805115e+00 1.387003e+00 1.321224e+00 7.437030e-01 1.154221e-01 1.670455e-01 1.563905e-01 3.131840e-01 3.623626e-01 3.403154e-01 3.896407e-01 3.441039e-01 3.634160e-01 2.936314e-01 2.738823e-01 2.744481e-01 1.154739e-01
<STATE> 3
<NUMMIXES> 2
<MIXTURE> 1 5.075047e-01
<MEAN> 39
 3.698715e+00 -1.178198e+01 2.884391e+00 -6.185206e+00 -8.239176e+00 -9.034806e+00 -9.776175e+00 6.179863e-01 -5.300335e-01 -7.788710e-01 -1.640382e+00 -9.574049e+00 6.204332e+01 -1.276450e-01 2.850791e+00 6.197053e-01 2.503611e+00 1.574589e+00 4.621821e-01 -9.584786e-01 -2.164279e+00 -1.168495e+00 4.578290e-01 1.244746e+00 8.527888e-01 -3.059100e+00 -7.179653e-01 4.033985e-01 1.386808e-02 3.288709e-01 4.996876e-01 6.012075e-01 5.992226e-01 -6.688207e-02 -1.293878e-01 -3.464703e-01 -2.434001e-01 1.977963e-01 -3.079772e-01
<VARIANCE> 39
 1.103673e+01 2.998204e+01 3.671912e+01 4.235488e+01 4.073741e+01 5.282669e+01 5.392906e+01 6.492191e+01 5.997210e+01 6.360397e+01 9.473555e+01 3.923636e+01 3.466511e+01 1.715551e+00 2.502024e+00 2.390929e+00 2.565580e+00 2.919150e+00 3.360001e+00 4.194848e+00 3.452674e+00 4.238428e+00 3.012550e+00 3.582780e+00 2.801079e+00 1.421005e+00 3.484347e-01 4.236054e-01 3.020244e-01 4.724523e-01 5.361189e-01 5.424526e-01 5.771328e-01 6.835920e-01 5.460516e-01 4.415259e-01 6.779605e-01 3.913187e-01 3.493841e-01
<MIXTURE> 2 4.924953e-01
<MEAN> 39
 1.594723e+00 -1.255376e+01 1.122989e+00 -9.467776e+00 -1.097915e+01 -1.259820e+01 -8.846789e+00 -2.095869e+00 -5.601104e+00 -4.545278e+00 -9.174408e+00 -9.327970e+00 6.070060e+01 1.193704e-01 2.903894e+00 8.979603e-01 2.817650e+00 1.365096e+00 -1.392923e-01 -2.132027e+00 -2.450805e+00 -5.197470e-01 3.897598e-01 8.904389e-01 -2.937544e-01 -3.245862e+00 -6.228700e-01 3.841834e-01 5.293860e-02 4.130889e-01 4.565864e-01 5.977532e-01 3.582530e-01 -1.876087e-01 -2.682021e-01 -4.262149e-01 4.440922e-02 1.749901e-01 -2.324745e-01
<VARIANCE> 39
 1.021640e+01 2.848996e+01 3.218903e+01 4.402149e+01 4.739391e+01 5.420205e+01 5.963553e+01 5.554764e+01 5.522129e+01 6.154231e+01 1.003156e+02 4.018189e+01 3.583867e+01 1.371251e+00 2.388849e+00 2.004423e+00 2.843282e+00 2.947104e+00 3.161939e+00 4.429055e+00 3.267636e+00 3.898866e+00 3.261778e+00 2.916337e+00 3.649492e+00 1.279079e+00 2.509592e-01 4.786857e-01 2.927032e-01 6.551602e-01 6.405037e-01 5.114795e-01 7.303212e-01 6.976417e-01 5.230618e-01 4.702137e-01 6.165572e-01 4.267479e-01 4.494357e-01
<STATE> 4
<NUMMIXES> 2
<MIXTURE> 1 5.351033e-01
<MEAN> 39
 -4.758635e+00 -2.516295e+00 3.374181e+00 1.680620e+00 -2.142587e+00 -3.933604e+00 -4.885964e+00 -3.200204e+00 -3.468299e+00 -2.666843e+00 -1.509292e+00 -5.034723e+00 4.860101e+01 -1.602352e+00 7.881744e-01 1.265580e-01 7.537453e-01 8.367472e-01 1.100717e+00 9.713275e-01 2.881458e-01 2.741208e-01 1.241550e-01 4.045928e-01 7.835649e-01 -1.237523e+00 6.630817e-02 -6.964217e-01 -1.785188e-01 -6.394364e-01 -4.276036e-01 -1.062769e-01 1.090285e-01 5.651527e-01 3.642756e-01 1.111985e-01 -5.966608e-02 -8.383012e-02 6.739375e-01
<VARIANCE> 39
 6.015476e+01 2.917391e+01 2.672032e+01 2.928415e+01 3.265284e+01 3.613420e+01 4.981847e+01 5.018276e+01 4.261502e+01 4.291555e+01 4.813894e+01 2.948952e+01 6.254729e+01 6.110812e+00 5.056733e+00 2.510972e+00 4.231353e+00 4.070639e+00 3.856775e+00 4.060010e+00 4.294821e+00 4.391721e+00 3.715353e+00 4.435299e+00 2.705328e+00 3.900333e+00 8.761027e-01 8.744397e-01 5.331618e-01 7.372756e-01 6.847303e-01 6.556384e-01 8.831846e-01 8.980285e-01 7.976217e-01 6.756133e-01 6.871759e-01 5.417472e-01 6.454274e-01
<MIXTURE> 2 4.648967e-01
<MEAN> 39
 -5.286276e+00 -3.447339e+00 2.526254e+00 1.202509e-01 -4.009281e+00 -6.690324e+00 -7.699603e+00 -6.078018e+00 -6.052616e+00 -4.958138e+00 -5.080945e+00 -6.779883e+00 4.857301e+01 -6.372419e-01 2.144232e-01 -2.149460e-01 -4.725878e-03 -1.084494e-01 2.001687e-01 1.421635e-01 -6.481298e-02 -1.960105e-01 -3.210859e-01 9.395009e-02 2.347588e-01 -4.128741e-01 2.857130e-01 -7.892521e-01 -2.935508e-01 -9.466404e-01 -5.861481e-01 -2.924890e-01 2.853460e-01 6.263572e-01 2.184246e-01 -8.165383e-02 -3.060492e-01 1.029910e-02 8.998118e-01
<VARIANCE> 39
 5.496667e+01 3.039892e+01 2.429423e+01 2.561797e+01 3.127950e+01 4.650146e+01 6.403180e+01 6.105212e+01 4.517325e+01 4.923634e+01 6.030717e+01 3.589600e+01 5.301091e+01 4.925031e+00 5.332701e+00 2.609616e+00 5.582841e+00 4.024352e+00 3.460359e+00 3.618106e+00 4.616674e+00 3.728439e+00 3.163568e+00 3.272506e+00 2.461540e+00 4.623950e+00 7.631870e-01 1.044120e+00 5.733752e-01 1.022086e+00 6.996794e-01 6.861301e-01 1.109680e+00 1.123290e+00 8.742293e-01 7.888741e-01 7.177899e-01 6.574822e-01 7.883416e-01
<TRANSP> 5
0.000000e+00 0.000000e+00 0.000000e+00 0.000000e+00 0.000000e+00 
0.000000e+00 2.121469e+05 5.018977e+03 0.000000e+00 0.000000e+00 
0.000000e+00 0.000000e+00 9.591593e+03 2.492444e+04 0.000000e+00 
0.000000e+00 0.000000e+00 0.000000e+00 7.652851e+10 8.017802e+01 
0.000000e+00 0.000000e+00 0.000000e+00 0.000000e+00 0.000000e+00 
<ENDHMM>
~h "w"
<BEGINHMM>
<NUMSTATES> 5
<STATE> 2
<NUMMIXES> 2
<MIXTURE> 1 5.178712e-01
<MEAN> 39
 5.253299e+00 5.802149e+00 1.294963e+00 -8.288333e+00 -1.077308e+01 -3.633763e+00 -4.582825e+00 -4.856903e+00 -7.391600e+00 -4.048610e+00 -2.802461e+00 -6.440730e+00 4.797573e+01 1.291899e+00 1.745676e-01 2.294452e-01 -1.241668e+00 -1.447967e+00 -1.766639e-01 1.721650e-01 3.987457e-01 2.610031e-01 1.779025e-01 4.752794e-02 -4.816105e-01 1.046341e+00 -2.499172e-01 -4.675221e-01 -3.461584e-02 -1.513664e-01 7.103926e-02 2.262570e-01 1.072963e-02 2.800643e-01 1.702890e-01 1.081404e-01 1.774422e-01 6.491638e-02 2.547600e-01
<VARIANCE> 39
 4.384948e+01 3.325840e+01 2.826867e+01 5.833226e+01 5.519182e+01 3.748049e+01 4.417322e+01 5.103380e+01 4.692317e+01 3.913607e+01 5.057297e+01 3.096395e+01 5.683083e+01 4.256666e+00 3.643053e+00 2.080568e+00 5.130440e+00 4.445422e+00 3.069801e+00 3.636283e+00 3.788574e+00 3.721897e+00 3.312089e+00 3.141393e+00 2.596190e+00 4.178079e+00 6.183060e-01 5.154021e-01 4.025448e-01 7.610761e-01 8.787860e-01 6.332971e-01 5.950112e-01 6.610320e-01 6.534690e-01 6.520153e-01 5.493438e-01 5.118483e-01 3.849718e-01
<MIXTURE> 2 4.821288e-01
<MEAN> 39
 4.096797e+00 4.599149e+00 -1.876517e+00 -1.064035e+01 -1.044833e+01 -6.500771e+00 -7.541891e+00 -8.809259e+00 -1.053534e+01 -5.572936e+00 -7.729539e+00 -7.418473e+00 4.690147e+01 1.444974e+00 3.089978e-01 -2.725795e-01 -1.595070e+00 -1.585526e+00 -4.395372e-01 -1.873187e-01 -7.754569e-02 -3.832002e-01 -5.458246e-01 -7.429151e-01 -8.500068e-01 1.003615e+00 -1.934911e-01 -4.464169e-01 -1.040216e-01 -2.594497e-01 1.190955e-01 1.289236e-01 1.541153e-03 2.754303e-01 5.679328e-02 1.231500e-01 7.799675e-02 2.411109e-02 2.839871e-01
<VARIANCE> 39
 4.198477e+01 3.242169e+01 2.811444e+01 6.894912e+01 4.549426e+01 3.793362e+01 4.249706e+01 5.154287e+01 4.526420e+01 3.588569e+01 5.235176e+01 3.135703e+01 4.947775e+01 4.461137e+00 3.598333e+00 2.565832e+00 6.954093e+00 4.034334e+00 3.262490e+00 4.280266e+00 5.318555e+00 4.710439e+00 4.046907e+00 3.895279e+00 2.775886e+00 4.181631e+00 6.224259e-01 5.414018e-01 4.422162e-01 9.833837e-01 8.212187e-01 6.903405e-01 6.435413e-01 7.573106e-01 6.951208e-01 6.328393e-01 5.944649e-01 5.086686e-01 3.693199e-01
<STATE> 3
<NUMMIXES> 2
<MIXTURE> 1 5.392863e-01
<MEAN> 39
 8.327197e+00 -1.444720e+00 1.270414e+00 -1.650444e+01 -1.577093e+01 2.047023e+00 -2.949929e+00 1.407146e+00 -5.097217e+00 -6.125423e+00 -3.986153e-01 -8.062454e+00 5.855707e+01 -1.661603e-01 -1.472279e+00 -7.565111e-01 -1.151604e+00 9.655747e-01 1.800811e+00 1.751828e-01 6.047654e-01 -1.000376e-01 -9.244715e-01 3.339335e-01 4.616308e-01 1.283176e+00 -1.447170e-01 -1.390264e-01 -8.448568e-02 3.217410e-01 5.885845e-01 1.463600e-01 -2.321147e-01 -3.797299e-01 -9.997724e-02 5.814701e-02 1.267487e-01 1.445717e-01 -2.274565e-02
<VARIANCE> 39
 7.909872e+00 3.298226e+01 3.469675e+01 5.921617e+01 4.815669e+01 5.769010e+01 5.967756e+01 7.058695e+01 6.659403e+01 5.182219e+01 6.151810e+01 3.912199e+01 2.380950e+01 3.301580e-01 1.696783e+00 1.143808e+00 2.064318e+00 3.697487e+00 2.682994e+00 2.433827e+00 3.322503e+00 2.881269e+00 2.471853e+00 2.275561e+00 2.286000e+00 7.320936e-01 7.956417e-02 1.779166e-01 2.001671e-01 3.927907e-01 3.928842e-01 4.890384e-01 4.718290e-01 4.982547e-01 4.549132e-01 6.179226e-01 4.061200e-01 3.960200e-01 9.136193e-02
<MIXTURE> 2 4.607137e-01
<MEAN> 39
 7.170237e+00 -1.218373e+00 -3.369195e+00 -2.037957e+01 -1.375082e+01 -1.799468e+00 -5.890453e+00 -3.696706e+00 -1.022258e+01 -7.217235e+00 -6.931577e+00 -9.495078e+00 5.626773e+01 -2.506819e-01 -1.696066e+00 -1.096126e+00 -1.547998e+00 1.573687e+00 1.794570e+00 1.574714e-01 7.315664e-01 -8.195775e-01 -9.779423e-01 3.427406e-01 -1.373123e-01 1.431306e+00 -2.208884e-01 -2.532533e-01 -3.412178e-02 4.909387e-01 7.251470e-01 1.230563e-01 -3.522699e-01 -4.387445e-01 -9.970426e-02 -4.287637e-02 1.620493e-01 3.557308e-02 -1.461594e-02
<VARIANCE> 39
 7.483452e+00 2.777057e+01 3.708611e+01 5.466674e+01 4.670725e+01 5.513855e+01 5.340558e+01 6.701407e+01 7.055355e+01 5.202530e+01 7.886209e+01 3.268620e+01 2.382741e+01 3.882457e-01 1.913910e+00 1.118001e+00 2.394759e+00 4.043752e+00 2.608201e+00 2.512307e+00 3.385842e+00 3.408995e+00 2.725701e+00 2.406090e+00 2.292357e+00 7.554036e-01 9.587298e-02 1.999685e-01 2.280818e-01 5.243243e-01 4.286934e-01 5.507838e-01 5.347824e-01 5.555285e-01 6.067664e-01 6.142061e-01 4.703310e-01 4.184214e-01 9.995910e-02
<STATE> 4
<NUMMIXES> 2
<MIXTURE> 1 5.373263e-01
<MEAN> 39
 5.257786e+00 -1.107582e+01 -4.171771e+00 -1.673538e+01 -2.014207e+00 8.867139e+00 -8.618101e+00 -2.710319e+00 -6.384314e+00 -7.447861e+00 1.607977e+00 -7.318262e+00 6.491478e+01 -5.037524e-01 -1.200005e+00 2.214293e-02 1.579554e+00 1.527552e+00 -4.784391e-01 -1.668653e+00 -5.960579e-01 1.195756e+00 8.766155e-01 -2.029701e-01 -6.300365e-01 5.928564e-01 8.509194e-03 2.421016e-01 3.036754e-01 3.081674e-01 -5.011712e-01 -6.318309e-01 2.018901e-02 3.972570e-01 3.368134e-01 8.410371e-02 -4.119071e-01 -1.943110e-01 -1.771075e-01
<VARIANCE> 39
 9.444895e+00 2.460102e+01 2.680523e+01 5.819695e+01 6.235955e+01 6.790028e+01 8.511948e+01 6.577557e+01 8.607498e+01 5.170733e+01 7.625632e+01 5.698843e+01 2.398869e+01 2.314843e-01 8.150309e-01 7.744198e-01 1.111273e+00 2.500556e+00 2.601264e+00 1.825217e+00 2.590444e+00 2.465364e+00 2.136941e+00 3.078380e+00 2.092997e+00 3.308724e-01 3.423750e-02 1.029137e-01 1.103981e-01 2.189998e-01 2.778945e-01 3.493301e-01 3.987159e-01 3.562385e-01 4.732644e-01 4.761331e-01 3.532874e-01 5.008643e-01 3.519582e-02
<MIXTURE> 2 4.626737e-01
<MEAN> 39
 3.941169e+00 -1.192773e+01 -8.218139e+00 -2.003410e+01 1.711867e+00 3.652090e+00 -1.250059e+01 -6.655590e+00 -1.222646e+01 -8.737012e+00 -4.290690e+00 -1.115137e+01 6.261081e+01 -7.419860e-01 -1.601597e+00 7.693316e-02 1.600761e+00 1.590229e+00 -7.625947e-01 -1.898308e+00 -2.317888e-01 1.366581e+00 4.886373e-02 -4.621558e-01 -8.474329e-01 8.198725e-01 -2.594961e-02 2.596027e-01 3.196426e-01 3.276917e-01 -7.329957e-01 -6.951722e-01 1.434283e-01 4.054115e-01 3.390480e-01 -1.760356e-01 -5.423948e-01 7.222252e-02 -1.817763e-01
<VARIANCE> 39
 9.060926e+00 2.611086e+01 2.862095e+01 5.333404e+01 6.342223e+01 6.005671e+01 6.476540e+01 5.497868e+01 9.181857e+01 5.627510e+01 6.966922e+01 4.458503e+01 2.251675e+01 2.856793e-01 1.094822e+00 8.205369e-01 1.162466e+00 3.489488e+00 2.672129e+00 2.250604e+00 2.645279e+00 2.830657e+00 2.263260e+00 3.536208e+00 2.067220e+00 4.146939e-01 3.644090e-02 1.084375e-01 1.373983e-01 3.062885e-01 3.613446e-01 4.127857e-01 5.020600e-01 3.952357e-01 6.660131e-01 4.433982e-01 4.035110e-01 5.003597e-01 3.491733e-02
<TRANSP> 5
0.000000e+00 0.000000e+00 0.000000e+00 0.000000e+00 0.000000e+00 
0.000000e+00 3.079643e+04 1.274585e+01 0.000000e+00 0.000000e+00 
0.000000e+00 0.000000e+00 1.019783e+03 3.478890e+01 0.000000e+00 
0.000000e+00 0.000000e+00 0.000000e+00 2.563967e+04 1.745509e+02 
0.000000e+00 0.000000e+00 0.000000e+00 0.000000e+00 0.000000e+00 
<ENDHMM>
~h "z"
<BEGINHMM>
<NUMSTATES> 5
<STATE> 2
<NUMMIXES> 2
<MIXTURE> 1 5.087626e-01
<MEAN> 39
 -6.865276e+00 4.085988e+00 7.010231e+00 7.167555e-01 -2.916633e+00 -9.514906e+00 -7.815810e+00 -3.772549e+00 -4.747604e+00 -4.404772e+00 -4.204274e+00 -3.660381e+00 4.893967e+01 -1.745206e+00 2.343713e+00 7.971206e-02 2.122601e-01 1.352189e+00 -5.947363e-01 8.629495e-02 -8.587023e-02 2.522111e-01 -1.402678e-01 -1.352619e-01 1.938837e-01 1.251466e+00 -4.813245e-01 1.274299e-01 -2.261589e-01 3.606040e-03 1.915874e-01 2.980153e-01 1.428899e-01 2.205602e-01 1.338928e-01 1.908473e-01 2.384364e-01 3.999239e-02 3.459168e-02
<VARIANCE> 39
 4.526596e+01 4.636496e+01 5.243357e+01 4.041553e+01 6.432687e+01 5.523998e+01 6.499715e+01 5.204768e+01 4.375446e+01 4.321230e+01 3.643004e+01 3.512552e+01 1.068674e+02 7.000496e+00 4.586941e+00 4.340250e+00 4.415570e+00 5.203955e+00 4.764599e+00 4.451522e+00 4.182405e+00 3.839361e+00 3.678211e+00 3.620884e+00 3.174151e+00 4.510089e+00 5.924667e-01 5.817217e-01 5.696803e-01 5.554633e-01 7.119170e-01 8.126945e-01 6.867285e-01 6.607359e-01 5.876492e-01 5.942216e-01 5.358379e-01 5.293346e-01 4.999959e-01
<MIXTURE> 2 4.912374e-01
<MEAN> 39
 -6.899349e+00 3.608080e+00 3.695442e+00 -2.989143e-01 -7.869940e+00 -1.219315e+01 -8.546909e+00 -6.883659e+00 -7.939973e+00 -7.531081e+00 -6.892196e+00 -3.712129e+00 4.763244e+01 -1.026895e+00 2.242582e+00 -5.552070e-01 1.058692e+00 2.018029e-01 -5.882518e-01 -4.619047e-01 -1.077162e+00 -4.885163e-01 -1.410149e+00 -2.441026e-01 -9.634636e-01 1.031439e+00 -4.755432e-01 8.303190e-02 -2.945913e-01 3.744984e-02 1.484846e-01 2.787015e-01 1.487772e-01 1.840407e-01 6.559660e-02 1.589794e-01 1.232319e-01 -1.382958e-01 7.315043e-02
<VARIANCE> 39
 4.497182e+01 4.494961e+01 4.550948e+01 4.290581e+01 7.178994e+01 6.934655e+01 5.384602e+01 5.753068e+01 4.903962e+01 4.854309e+01 4.223217e+01 3.617999e+01 9.532275e+01 7.070307e+00 5.268404e+00 4.167913e+00 4.941871e+00 5.192438e+00 4.877310e+00 4.589811e+00 4.544753e+00 4.448292e+00 4.336153e+00 4.330150e+00 3.398458e+00 4.714374e+00 5.885451e-01 6.409049e-01 6.250060e-01 5.117484e-01 6.958714e-01 7.981560e-01 6.310185e-01 7.079166e-01 7.030673e-01 6.944282e-01 5.833473e-01 6.050073e-01 4.803883e-01
<STATE> 3
<NUMMIXES> 2
<MIXTURE> 1 5.286197e-01
<MEAN> 39
 -1.436147e+01 1.324048e+01 6.233051e+00 1.679879e+00 1.505111e+00 -1.105166e+01 -8.976168e+00 -5.238841e+00 -4.720311e+00 -4.416051e+00 -4.243016e+00 -4.070000e+00 5.668100e+01 -2.660599e+00 1.332429e+00 -4.148784e-01 4.585109e-01 1.452998e+00 9.478505e-01 7.356764e-01 7.229415e-01 3.632550e-01 2.708730e-01 2.962571e-01 2.624014e-01 4.169766e-02 3.650534e-01 -7.823526e-01 1.809776e-01 -1.127791e-01 -3.216158e-01 2.846888e-01 1.383167e-01 1.060265e-01 -6.720693e-02 1.132219e-01 8.193926e-02 3.017337e-02 -9.578544e-02
<VARIANCE> 39
 2.405583e+01 2.707856e+01 5.022289e+01 4.754302e+01 7.102572e+01 4.368523e+01 4.016858e+01 3.853999e+01 3.653648e+01 4.494943e+01 2.376145e+01 2.690559e+01 2.650627e+01 2.561805e+00 3.266903e+00 1.975705e+00 2.609851e+00 2.453741e+00 3.365773e+00 2.680992e+00 2.219091e+00 2.047767e+00 2.124254e+00 2.094640e+00 1.873640e+00 1.179369e+00 2.459883e-01 4.037147e-01 3.330751e-01 4.385137e-01 4.576003e-01 5.209297e-01 4.012749e-01 4.699682e-01 4.741021e-01 5.356004e-01 3.805244e-01 3.800037e-01 1.798279e-01
<MIXTURE> 2 4.713803e-01
<MEAN> 39
 -1.446613e+01 1.323650e+01 1.105049e+00 4.167749e+00 -6.016983e+00 -1.185411e+01 -9.672753e+00 -9.932286e+00 -9.360289e+00 -1.032191e+01 -7.052139e+00 -8.407023e+00 5.381955e+01 -2.234343e+00 9.806818e-01 -4.358604e-01 9.536363e-01 1.103121e+00 1.240193e+00 4.764527e-01 1.154178e-01 -1.584416e-01 -1.352958e-01 1.861619e-01 -5.360995e-01 -3.810124e-02 3.389958e-01 -8.037567e-01 1.826943e-01 -4.308867e-01 -2.690631e-01 5.359941e-02 9.192697e-02 6.369939e-02 2.952417e-02 3.058549e-01 -1.893425e-03 2.411672e-01 1.828699e-02
<VARIANCE> 39
 2.173081e+01 2.627520e+01 4.343589e+01 3.816586e+01 8.016315e+01 4.389871e+01 3.213465e+01 3.821576e+01 3.909008e+01 4.634803e+01 2.558005e+01 3.244181e+01 2.349668e+01 2.484436e+00 3.393209e+00 2.126233e+00 2.772754e+00 2.729100e+00 3.403671e+00 2.475374e+00 2.089178e+00 2.078577e+00 2.297717e+00 1.992129e+00 1.970619e+00 1.103539e+00 2.284247e-01 4.945501e-01 3.711438e-01 4.368036e-01 5.465002e-01 5.370260e-01 4.135436e-01 5.090988e-01 4.882739e-01 5.364469e-01 4.301205e-01 3.957236e-01 1.892176e-01
<STATE> 4
<NUMMIXES> 2
<MIXTURE> 1 5.482954e-01
<MEAN> 39
 -2.308033e+01 1.058030e+01 3.343570e+00 1.018370e+00 3.409532e+00 -4.688443e+00 -4.018255e+00 -1.652244e+00 -3.735428e+00 -3.069243e+00 -2.145903e+00 -3.049363e+00 5.486996e+01 -4.149145e-01 -8.246365e-01 -1.099201e-01 -3.407438e-01 -4.385528e-01 2.441962e-01 5.296888e-01 4.951693e-01 3.828382e-01 4.830187e-01 5.693328e-01 3.876022e-01 7.118228e-01 1.181311e+00 -4.758383e-01 3.942063e-01 -1.826115e-01 -8.011711e-01 -6.460316e-01 -4.409887e-01 -3.536470e-01 -6.030195e-02 -6.845441e-02 -9.117828e-03 -3.131982e-02 3.148494e-01
<VARIANCE> 39
 2.741296e+01 3.379893e+01 8.997574e+01 5.041158e+01 6.376148e+01 4.794268e+01 5.275889e+01 3.765696e+01 3.067044e+01 2.945942e+01 2.221622e+01 2.367873e+01 3.692331e+01 3.156919e+00 2.188186e+00 2.808495e+00 1.975972e+00 2.390237e+00 3.115461e+00 2.732097e+00 2.478100e+00 2.591360e+00 2.789927e+00 2.083527e+00 1.683714e+00 9.641339e-01 3.641255e-01 6.156223e-01 5.387539e-01 5.367343e-01 4.966517e-01 5.436509e-01 5.154639e-01 4.667713e-01 4.790484e-01 4.639840e-01 4.011512e-01 3.773798e-01 1.555838e-01
<MIXTURE> 2 4.517046e-01
<MEAN> 39
 -2.298182e+01 9.279759e+00 -1.625069e+00 3.815337e+00 -2.021768e+00 -4.111591e+00 -3.806828e+00 -4.906127e+00 -6.005557e+00 -5.685074e+00 -2.829997e+00 -5.772854e+00 5.283850e+01 -2.428782e-01 -8.839313e-01 -1.460052e-01 -9.523887e-01 -7.704699e-01 -2.094791e-01 3.864500e-01 -1.344174e-01 2.266353e-01 3.791773e-01 4.890755e-01 2.029787e-01 7.962801e-01 1.234861e+00 -3.194245e-01 6.012888e-01 -5.418036e-01 -9.184165e-01 -9.707655e-01 -4.891524e-01 -5.386531e-01 -2.058524e-01 -1.392292e-01 -1.620644e-01 3.434408e-02 3.469273e-01
<VARIANCE> 39
 2.563438e+01 4.137650e+01 7.974836e+01 4.060940e+01 6.261051e+01 4.510371e+01 4.577047e+01 4.450123e+01 4.134569e+01 4.461511e+01 3.125063e+01 3.255573e+01 3.147497e+01 2.729098e+00 2.048694e+00 2.909608e+00 2.081073e+00 2.302436e+00 3.126515e+00 2.413317e+00 2.821614e+00 2.484194e+00 2.539384e+00 2.111035e+00 1.855437e+00 7.521030e-01 4.012899e-01 7.181881e-01 5.864105e-01 6.080684e-01 5.961987e-01 6.855948e-01 5.941128e-01 5.970823e-01 6.227188e-01 6.267097e-01 5.243754e-01 4.846302e-01 1.650365e-01
<TRANSP> 5
0.000000e+00 0.000000e+00 0.000000e+00 0.000000e+00 0.000000e+00 
0.000000e+00 1.166834e+07 5.783965e+01 0.000000e+00 0.000000e+00 
0.000000e+00 0.000000e+00 2.638991e+01 4.062604e+05 0.000000e+00 
0.000000e+00 0.000000e+00 0.000000e+00 2.597294e+02 1.071504e+06 
0.000000e+00 0.000000e+00 0.000000e+00 0.000000e+00 0.000000e+00 
<ENDHMM>
~h "ah"
<BEGINHMM>
<NUMSTATES> 5
<STATE> 2
<NUMMIXES> 2
<MIXTURE> 1 4.953927e-01
<MEAN> 39
 3.195511e+00 -1.207893e+01 1.041410e+00 -7.422290e+00 -4.091372e+00 -2.936092e+00 -1.281581e+01 -3.523198e-01 -1.338206e+00 -3.814543e+00 -3.248464e+00 -9.377367e+00 6.296222e+01 -1.580957e-01 -4.631956e-01 8.125213e-01 6.330596e-03 -7.648334e-01 -8.605290e-01 1.109400e-01 1.616009e+00 3.274157e-01 -5.235025e-01 -9.600459e-01 1.833613e-01 6.541356e-01 1.098745e-02 4.151350e-01 2.788296e-01 1.168985e-01 -5.526098e-02 1.190310e-02 3.184994e-01 -2.634559e-01 -5.378844e-01 8.776701e-02 1.372924e-01 1.729078e-01 -3.626909e-01
<VARIANCE> 39
 1.223681e+01 2.730975e+01 3.179079e+01 3.788862e+01 4.435611e+01 7.256853e+01 5.081010e+01 4.922954e+01 6.705119e+01 7.709007e+01 8.182275e+01 3.659011e+01 2.848651e+01 5.969778e-01 1.505940e+00 1.166207e+00 3.297952e+00 2.072236e+00 2.865303e+00 2.882870e+00 2.328253e+00 2.934569e+00 2.653713e+00 2.867013e+00 2.921297e+00 1.272078e+00 1.066757e-01 3.079667e-01 1.931157e-01 4.490614e-01 3.885881e-01 3.813392e-01 4.792830e-01 6.383750e-01 5.775832e-01 4.532873e-01 5.013460e-01 3.679907e-01 2.764473e-01
<MIXTURE> 2 5.046073e-01
<MEAN> 39
 8.813111e-01 -1.393847e+01 -1.975918e+00 -1.055111e+01 -4.250236e+00 -7.978951e+00 -1.408399e+01 -2.242417e+00 -6.848988e+00 -1.045061e+01 -1.032889e+01 -9.951404e+00 6.224960e+01 -3.267296e-01 -6.615334e-01 6.296587e-01 -2.706006e-01 -1.384889e+00 -1.183808e+00 7.912218e-01 1.545608e+00 -3.505970e-01 -1.195810e+00 -7.793326e-01 8.197596e-01 8.371602e-01 2.032519e-02 4.328345e-01 1.954004e-01 -5.621787e-02 -1.584602e-01 6.279926e-02 3.151727e-01 -2.128495e-01 -5.478083e-01 8.214725e-02 2.206693e-01 1.739166e-01 -2.910805e-01
<VARIANCE> 39
 1.154151e+01 2.924084e+01 3.560617e+01 3.794885e+01 6.763001e+01 7.116121e+01 5.328082e+01 5.665406e+01 6.350439e+01 7.582474e+01 6.699033e+01 3.733602e+01 2.672054e+01 6.941564e-01 1.584789e+00 1.342031e+00 4.450362e+00 2.068979e+00 2.685639e+00 2.711074e+00 2.366416e+00 3.187276e+00 2.572015e+00 2.829575e+00 2.491891e+00 1.377859e+00 1.023186e-01 2.904037e-01 1.792285e-01 4.796867e-01 4.607262e-01 3.371702e-01 5.352357e-01 5.690488e-01 5.004131e-01 4.566705e-01 4.474105e-01 4.211875e-01 2.530655e-01
<STATE> 3
<NUMMIXES> 2
<MIXTURE> 1 5.042066e-01
<MEAN> 39
 2.141239e+00 -1.178548e+01 3.442496e+00 -7.907137e+00 -6.051265e+00 -5.438409e+00 -1.183070e+01 2.766494e+00 -3.899750e+00 -6.686561e+00 -5.731848e+00 -8.310900e+00 6.359155e+01 2.281381e-01 1.585500e+00 1.642115e+00 1.617239e+00 -8.916927e-01 -1.091854e+00 1.028715e+00 -1.205368e+00 -1.558717e+00 6.373958e-01 -2.424534e-01 5.643122e-01 -1.495301e+00 1.946189e-01 6.413735e-01 1.643302e-01 5.545647e-01 -1.152916e-01 1.658023e-01 4.982230e-01 -1.358336e+00 -4.511332e-01 5.096208e-01 1.647484e-01 1.488167e-01 -6.649574e-01
<VARIANCE> 39
 1.326442e+01 2.571294e+01 3.283749e+01 4.675354e+01 4.359557e+01 7.399174e+01 6.875530e+01 5.713483e+01 1.081020e+02 8.258483e+01 5.784133e+01 4.630272e+01 2.503889e+01 5.761629e-01 1.270184e+00 1.682919e+00 2.695947e+00 2.853215e+00 4.024159e+00 3.239104e+00 5.219431e+00 3.658140e+00 3.279164e+00 3.298692e+00 2.975209e+00 8.475764e-01 1.089027e-01 2.372116e-01 3.382893e-01 4.958160e-01 5.067385e-01 7.141251e-01 8.713793e-01 7.492874e-01 1.170903e+00 6.768932e-01 6.494827e-01 5.376412e-01 1.160006e-01
<MIXTURE> 2 4.957934e-01
<MEAN> 39
 -2.714229e-01 -1.299791e+01 1.195605e+00 -1.195339e+01 -8.622953e+00 -1.107744e+01 -1.034111e+01 1.210668e+00 -1.189415e+01 -1.268824e+01 -1.075897e+01 -6.247724e+00 6.288040e+01 3.611695e-01 1.601661e+00 1.377643e+00 7.018223e-01 -1.429350e+00 -9.712971e-01 7.580938e-01 -1.116778e+00 -1.476667e+00 5.002937e-01 -9.251904e-02 7.057556e-01 -1.279621e+00 2.802162e-01 6.482133e-01 1.554501e-01 5.223083e-01 -9.257086e-02 2.058448e-01 8.727634e-03 -1.405746e+00 9.189210e-02 5.802217e-01 -8.267158e-02 -6.104311e-02 -6.834469e-01
<VARIANCE> 39
 1.200335e+01 2.606300e+01 3.169767e+01 4.189966e+01 4.735389e+01 6.305368e+01 5.657932e+01 5.270548e+01 9.493934e+01 6.189056e+01 5.035675e+01 4.045480e+01 2.195698e+01 5.769943e-01 1.214623e+00 1.572806e+00 2.358382e+00 2.980045e+00 3.586164e+00 2.880882e+00 5.047206e+00 3.114719e+00 2.903710e+00 2.989140e+00 2.901653e+00 9.292508e-01 9.956784e-02 2.393856e-01 3.028248e-01 4.929897e-01 4.911244e-01 7.216461e-01 8.055555e-01 7.357564e-01 9.327351e-01 6.104319e-01 5.908637e-01 5.625513e-01 1.225976e-01
<STATE> 4
<NUMMIXES> 2
<MIXTURE> 1 5.279136e-01
<MEAN> 39
 3.891066e+00 -5.913246e+00 7.984855e+00 -5.821611e-01 -8.711653e+00 -6.973302e+00 -7.307557e+00 -6.433248e+00 -7.912561e+00 -2.092038e+00 -5.974671e+00 -7.468682e+00 5.767016e+01 3.280795e-01 2.209658e+00 1.509044e+00 2.146142e+00 -1.167749e+00 -5.496521e-01 2.153753e+00 -3.547554e+00 -1.896438e+00 1.274591e+00 -2.849969e-01 6.930497e-01 -2.027975e+00 -6.386723e-02 -1.268761e-01 -3.730247e-01 -3.428090e-01 1.859443e-01 3.664206e-01 -1.039430e-01 2.235184e-01 2.929964e-01 -1.299267e-01 1.479309e-01 -2.276541e-02 1.953885e-01
<VARIANCE> 39
 7.534140e+00 2.732143e+01 2.736376e+01 5.575617e+01 4.384963e+01 6.382535e+01 5.725923e+01 7.129568e+01 8.144814e+01 7.043780e+01 6.643491e+01 5.283237e+01 2.396918e+01 6.069265e-01 1.337818e+00 2.397202e+00 2.731199e+00 2.835338e+00 5.164473e+00 4.522012e+00 5.311435e+00 7.129894e+00 3.860355e+00 3.673395e+00 3.119720e+00 5.866811e-01 5.875519e-02 2.183633e-01 2.664880e-01 3.711631e-01 3.684484e-01 4.730494e-01 5.223732e-01 8.496748e-01 6.516564e-01 4.711283e-01 4.365145e-01 3.968361e-01 1.211285e-01
<MIXTURE> 2 4.720864e-01
<MEAN> 39
 2.552042e+00 -5.724560e+00 5.848807e+00 -6.015472e+00 -1.295815e+01 -1.315107e+01 -7.742216e+00 -9.545629e+00 -1.349017e+01 -7.883580e+00 -1.209645e+01 -3.782718e+00 5.625125e+01 6.476919e-01 2.321575e+00 1.265153e+00 1.558320e+00 -1.592379e+00 1.688452e-01 1.087088e+00 -4.209192e+00 -4.252950e-01 1.312566e+00 -5.441847e-01 5.362341e-01 -2.030894e+00 -1.307972e-01 -2.476297e-01 -3.680698e-01 -2.781080e-01 2.653317e-01 4.316533e-01 -1.665225e-01 2.288696e-01 2.687621e-01 -2.316591e-01 1.042368e-01 -3.221530e-01 2.244205e-01
<VARIANCE> 39
 6.552005e+00 2.622131e+01 2.679855e+01 5.152868e+01 4.193864e+01 6.256327e+01 4.969102e+01 8.189156e+01 8.185844e+01 6.672988e+01 7.101029e+01 5.308031e+01 2.216347e+01 5.858987e-01 1.330017e+00 2.294716e+00 2.366797e+00 2.870686e+00 5.550636e+00 4.705421e+00 5.182786e+00 5.984269e+00 3.696853e+00 3.531536e+00 3.793488e+00 6.449680e-01 5.801119e-02 2.149762e-01 2.765376e-01 3.318125e-01 3.945560e-01 4.804887e-01 4.461690e-01 1.027378e+00 5.454192e-01 4.858060e-01 4.524642e-01 4.260348e-01 1.173626e-01
<TRANSP> 5
0.000000e+00 0.000000e+00 0.000000e+00 0.000000e+00 0.000000e+00 
0.000000e+00 2.003973e+01 1.875901e+01 0.000000e+00 0.000000e+00 
0.000000e+00 0.000000e+00 6.574440e+01 1.507381e+00 0.000000e+00 
0.000000e+00 0.000000e+00 0.000000e+00 5.186525e+00 6.611341e+07 
0.000000e+00 0.000000e+00 0.000000e+00 0.000000e+00 0.000000e+00 
<ENDHMM>
~h "ao"
<BEGINHMM>
<NUMSTATES> 5
<STATE> 2
<NUMMIXES> 2
<MIXTURE> 1 5.066888e-01
<MEAN> 39
 9.005247e+00 7.815544e-01 -2.063339e+00 -2.088445e+01 -1.736586e+01 9.825296e-01 -5.494661e+00 -9.117972e-01 -8.215094e+00 -5.108401e+00 -9.556212e-01 -5.315296e+00 5.775508e+01 2.221850e+00 6.243619e-01 2.373336e-01 -3.153350e+00 -2.499194e+00 5.879217e-01 -2.170638e-01 8.330034e-01 -3.064322e-01 -2.778850e-01 3.014116e-01 -4.040288e-01 1.021393e+00 -1.643489e+00 -6.047809e-01 -6.687314e-02 1.446043e+00 1.049918e+00 -1.585242e-01 1.960349e-01 8.025424e-02 5.595198e-01 4.082532e-01 1.797897e-01 2.661189e-01 -3.873042e-01
<VARIANCE> 39
 9.751244e+00 2.547818e+01 4.279358e+01 5.365123e+01 5.162653e+01 5.283265e+01 4.818369e+01 6.351957e+01 6.856238e+01 5.226991e+01 7.622436e+01 3.011491e+01 1.875512e+01 5.051398e+00 2.242194e+00 2.063723e+00 5.875713e+00 6.171743e+00 3.199807e+00 2.941668e+00 3.392821e+00 3.937267e+00 4.137072e+00 3.668396e+00 2.263967e+00 1.161116e+00 2.348951e-01 3.951200e-01 4.123010e-01 6.398916e-01 5.827537e-01 5.369077e-01 4.980799e-01 5.786937e-01 6.540387e-01 5.237999e-01 6.829185e-01 3.869449e-01 1.933406e-01
<MIXTURE> 2 4.933112e-01
<MEAN> 39
 7.753158e+00 -4.087716e-01 -5.287106e+00 -2.327436e+01 -1.550495e+01 -5.705855e-01 -7.402421e+00 -2.830059e+00 -1.205170e+01 -4.404976e+00 -3.883608e+00 -6.137447e+00 5.721133e+01 2.480905e+00 7.125944e-01 -3.515607e-01 -4.079105e+00 -2.455453e+00 3.923867e-01 -4.177752e-01 7.082587e-01 -1.129860e+00 -2.300233e-01 -4.701753e-01 -8.645523e-01 1.007992e+00 -1.688559e+00 -5.542686e-01 1.615454e-01 1.528791e+00 8.020657e-01 -1.416271e-01 2.386222e-01 1.730366e-01 8.061569e-01 2.870342e-01 2.879924e-01 1.752235e-01 -4.136274e-01
<VARIANCE> 39
 8.983980e+00 2.510073e+01 3.795690e+01 5.372121e+01 4.714842e+01 5.265818e+01 4.337558e+01 5.409509e+01 6.300999e+01 4.893981e+01 7.850193e+01 3.228157e+01 2.026065e+01 5.143153e+00 2.241074e+00 2.285791e+00 8.073780e+00 5.580792e+00 3.577205e+00 3.018700e+00 3.387918e+00 5.192439e+00 4.368205e+00 5.094748e+00 2.606100e+00 1.302194e+00 2.505709e-01 3.945569e-01 3.810585e-01 6.813301e-01 5.044949e-01 5.750287e-01 4.510877e-01 6.300212e-01 6.139291e-01 5.569237e-01 6.344300e-01 3.928406e-01 2.163667e-01
<STATE> 3
<NUMMIXES> 2
<MIXTURE> 1 5.258014e-01
<MEAN> 39
 9.222028e+00 1.068409e+00 -1.059963e+00 -2.191964e+01 -1.956634e+01 4.018465e-01 -3.928125e+00 9.512151e-01 -6.502491e+00 -5.086461e+00 3.451917e-01 -6.680127e+00 5.847616e+01 8.271342e-02 -3.853573e-01 -5.335528e-01 3.839771e-01 4.902995e-01 -9.948810e-02 3.467943e-01 3.849889e-01 -3.084001e-01 -1.244227e-01 4.736138e-01 4.582160e-01 1.543191e-01 -5.708769e-02 -2.272213e-01 -2.425163e-01 3.580050e-01 4.454380e-01 1.690062e-02 -7.750478e-02 -6.203427e-03 -1.073230e-01 -2.125704e-02 1.838085e-01 2.301411e-01 4.623485e-02
<VARIANCE> 39
 1.095861e+01 2.455510e+01 4.456098e+01 4.828775e+01 5.711259e+01 5.914478e+01 5.958082e+01 7.169042e+01 7.838308e+01 5.778599e+01 7.930801e+01 4.273815e+01 2.169006e+01 1.384059e-01 1.152939e+00 1.156941e+00 9.359567e-01 1.374747e+00 1.141394e+00 1.258663e+00 1.274610e+00 1.701796e+00 1.695983e+00 1.493246e+00 1.533657e+00 3.585338e-01 5.834561e-02 1.060462e-01 1.374110e-01 2.231116e-01 2.368906e-01 2.024617e-01 2.579004e-01 2.045519e-01 2.611804e-01 2.748843e-01 2.463625e-01 2.417836e-01 5.282079e-02
<MIXTURE> 2 4.741986e-01
<MEAN> 39
 7.616256e+00 5.491215e-01 -5.320035e+00 -2.607660e+01 -1.678200e+01 -7.713274e-01 -6.744063e+00 -1.160831e+00 -1.071127e+01 -4.732546e+00 -4.598876e+00 -7.599772e+00 5.711862e+01 3.166910e-03 -2.014631e-01 -3.505781e-01 2.875478e-01 1.550544e-03 -1.306418e-01 2.574790e-01 1.806328e-02 -3.149775e-01 -6.640381e-02 1.274873e-01 -2.305373e-01 4.455189e-02 -9.847068e-02 -2.638718e-01 -2.078762e-01 3.939477e-01 3.040408e-01 -8.623139e-02 -3.062994e-02 -1.389366e-01 -1.657318e-01 4.709196e-02 1.197204e-01 1.783564e-02 3.372935e-02
<VARIANCE> 39
 9.160049e+00 2.566745e+01 4.077441e+01 4.470586e+01 5.525069e+01 5.093856e+01 4.888174e+01 5.833913e+01 7.868117e+01 5.664849e+01 8.255918e+01 4.218067e+01 2.307394e+01 1.331631e-01 1.204074e+00 9.458622e-01 9.249463e-01 1.138087e+00 1.156545e+00 1.089270e+00 1.404780e+00 1.816241e+00 1.669994e+00 1.349055e+00 1.268629e+00 3.508465e-01 6.379259e-02 1.169698e-01 1.264958e-01 2.560794e-01 2.164023e-01 2.156720e-01 2.223642e-01 2.347723e-01 2.757595e-01 3.006133e-01 2.519876e-01 2.758153e-01 6.351084e-02
<STATE> 4
<NUMMIXES> 2
<MIXTURE> 1 5.508452e-01
<MEAN> 39
 9.766712e+00 -5.369380e+00 -1.059400e+01 -1.480221e+01 -7.358933e+00 -1.467106e+00 -9.021471e+00 3.549898e+00 -7.681258e+00 -6.496403e+00 5.020885e+00 -2.033055e+00 6.115268e+01 1.924657e-02 -1.131430e+00 -1.443899e+00 1.665039e+00 2.684753e+00 -4.801132e-01 -1.976723e+00 3.477585e-02 6.710008e-01 6.855438e-01 2.394546e-01 2.986298e-01 3.124041e-01 -4.533591e-02 1.255152e-01 3.141104e-01 1.336429e-01 -1.761535e-02 -1.746692e-01 -2.533989e-01 -4.026065e-03 4.331426e-01 2.425366e-01 -3.867117e-01 -2.729872e-01 -1.343105e-01
<VARIANCE> 39
 1.107855e+01 3.228218e+01 4.664745e+01 4.628725e+01 1.144366e+02 6.103916e+01 1.086009e+02 8.937076e+01 1.080699e+02 9.860175e+01 7.980089e+01 5.696716e+01 2.579054e+01 2.351866e-01 1.105387e+00 1.757244e+00 1.810823e+00 2.240540e+00 2.732549e+00 3.497369e+00 3.398274e+00 3.522328e+00 4.546588e+00 3.536547e+00 4.193951e+00 4.148559e-01 3.693573e-02 1.207528e-01 2.294379e-01 2.310590e-01 4.287207e-01 3.742915e-01 6.411806e-01 5.425807e-01 5.327955e-01 7.579867e-01 4.901856e-01 5.760599e-01 3.710045e-02
<MIXTURE> 2 4.491548e-01
<MEAN> 39
 7.752320e+00 -7.758584e+00 -1.417383e+01 -1.695597e+01 -6.473609e+00 -4.084263e+00 -8.858141e+00 -8.694323e-01 -1.453646e+01 -1.698214e+00 -1.175585e+00 -7.548573e+00 6.006588e+01 -1.191880e-01 -1.402173e+00 -1.045557e+00 2.005318e+00 1.929878e+00 -1.367494e+00 -1.596059e+00 3.746518e-01 4.705900e-01 7.007786e-01 -2.375955e-01 -7.162939e-01 3.291002e-01 -4.350295e-02 1.254000e-01 3.265739e-01 5.462055e-02 -1.603228e-01 -3.645366e-01 -1.866590e-01 2.451617e-01 3.955838e-01 -1.975050e-01 -4.497396e-01 -7.676668e-02 -1.453491e-01
<VARIANCE> 39
 9.943050e+00 3.335350e+01 3.417388e+01 5.059293e+01 8.275123e+01 6.794662e+01 7.920341e+01 8.405395e+01 1.207604e+02 1.028549e+02 9.194824e+01 6.342936e+01 2.267487e+01 2.096017e-01 1.207668e+00 1.391636e+00 1.603986e+00 2.377634e+00 3.040900e+00 3.221540e+00 3.523418e+00 3.738861e+00 4.343561e+00 3.233849e+00 3.756703e+00 3.939105e-01 3.197378e-02 1.231078e-01 1.899587e-01 2.364774e-01 3.416525e-01 4.002576e-01 4.939758e-01 5.375836e-01 5.109001e-01 8.422007e-01 4.698907e-01 6.107796e-01 3.214138e-02
<TRANSP> 5
0.000000e+00 0.000000e+00 0.000000e+00 0.000000e+00 0.000000e+00 
0.000000e+00 3.099815e+02 1.410833e+00 0.000000e+00 0.000000e+00 
0.000000e+00 0.000000e+00 3.261415e+03 1.078944e+04 0.000000e+00 
0.000000e+00 0.000000e+00 0.000000e+00 6.852574e+02 1.071022e+04 
0.000000e+00 0.000000e+00 0.000000e+00 0.000000e+00 0.000000e+00 
<ENDHMM>
~h "ay"
<BEGINHMM>
<NUMSTATES> 5
<STATE> 2
<NUMMIXES> 2
<MIXTURE> 1 5.437615e-01
<MEAN> 39
 2.457964e+00 -1.699370e+01 -3.640042e+00 -1.121607e+01 -1.148869e+00 1.982684e+00 -7.058064e+00 -1.443645e+00 -2.395709e+00 -5.918781e+00 -5.645496e+00 -9.515568e+00 6.721941e+01 -1.987587e-01 -5.395049e-01 -4.528008e-01 2.856074e-01 1.066861e+00 6.295637e-01 4.202830e-02 -4.002566e-01 4.590298e-01 -3.243673e-01 -6.316214e-02 1.723975e-01 3.019238e-01 -2.072943e-02 4.163513e-01 3.307031e-01 3.212075e-01 -1.903534e-01 -2.651966e-01 2.287104e-02 -1.191336e-01 -6.783215e-02 1.609354e-01 1.325907e-01 1.275482e-01 -3.964874e-01
<VARIANCE> 39
 1.477363e+01 2.684741e+01 4.332547e+01 5.207314e+01 4.154747e+01 8.069151e+01 8.340533e+01 7.376879e+01 7.836179e+01 6.343797e+01 7.648002e+01 4.749491e+01 1.796255e+01 3.817396e-01 7.017295e-01 1.230226e+00 1.525964e+00 1.610750e+00 1.802069e+00 2.046766e+00 1.829470e+00 1.615253e+00 1.600235e+00 1.949786e+00 1.488831e+00 3.510051e-01 1.393109e-01 2.043861e-01 1.696801e-01 3.312471e-01 2.676284e-01 2.806394e-01 3.812666e-01 5.755807e-01 4.176967e-01 2.977866e-01 3.592941e-01 2.808553e-01 1.573061e-01
<MIXTURE> 2 4.562385e-01
<MEAN> 39
 5.954705e-01 -1.850069e+01 -5.544100e+00 -1.166278e+01 -1.092846e+00 -1.691894e+00 -9.118957e+00 -3.248096e+00 -6.385358e+00 -9.512119e+00 -8.473259e+00 -9.185953e+00 6.635921e+01 -2.211133e-01 -6.972529e-01 -5.370831e-01 5.050766e-01 1.071508e+00 4.598374e-01 -6.720539e-01 -5.407234e-01 5.464390e-01 -4.501961e-01 4.239271e-03 -4.102957e-01 2.238232e-01 -2.255276e-02 4.273847e-01 2.889034e-01 1.693830e-01 -3.058518e-01 -2.915351e-01 -1.172302e-02 -1.114059e-01 -4.584045e-02 1.104552e-01 2.460199e-02 6.910814e-02 -3.829856e-01
<VARIANCE> 39
 1.479970e+01 2.559677e+01 4.154365e+01 4.697963e+01 4.771910e+01 8.601901e+01 7.920248e+01 7.266316e+01 7.528455e+01 6.829350e+01 6.916465e+01 5.100679e+01 1.819891e+01 4.184417e-01 6.794032e-01 1.119850e+00 1.271761e+00 1.752852e+00 1.629948e+00 2.286831e+00 1.678379e+00 1.750120e+00 1.624249e+00 1.744207e+00 1.677318e+00 3.178846e-01 1.733439e-01 1.910319e-01 1.666069e-01 3.660750e-01 2.920226e-01 2.751597e-01 3.547042e-01 5.113597e-01 3.646096e-01 3.157024e-01 3.564781e-01 3.120285e-01 1.539259e-01
<STATE> 3
<NUMMIXES> 2
<MIXTURE> 1 5.596474e-01
<MEAN> 39
 1.891069e+00 -1.849185e+01 -3.170217e+00 -9.629905e+00 -2.715939e-01 2.040386e+00 -7.698190e+00 -1.642979e+00 -1.321717e+00 -7.498497e+00 -5.973216e+00 -9.182826e+00 6.722705e+01 -5.076818e-02 -4.025559e-02 3.211523e-01 4.050193e-01 -1.659805e-01 -3.586047e-01 9.367484e-02 4.591984e-01 1.390196e-01 -1.488749e-01 -7.845641e-02 2.422965e-01 -3.632883e-02 2.205602e-03 7.372597e-02 1.267288e-01 3.378818e-02 -1.688409e-01 -1.062530e-01 8.338892e-02 1.607461e-01 -3.555799e-02 3.279864e-02 4.824621e-02 6.167199e-02 -1.909773e-02
<VARIANCE> 39
 1.301151e+01 2.549883e+01 3.715646e+01 4.484174e+01 4.328280e+01 7.753304e+01 8.481193e+01 7.597610e+01 6.980662e+01 5.952411e+01 6.653176e+01 5.033809e+01 2.336885e+01 1.091314e-01 2.405679e-01 3.629630e-01 4.796229e-01 7.573068e-01 8.854466e-01 7.799712e-01 9.156001e-01 6.415330e-01 5.733451e-01 7.177698e-01 5.941947e-01 8.523690e-02 1.847005e-02 3.604482e-02 4.990283e-02 6.406255e-02 8.495668e-02 9.648266e-02 1.257530e-01 1.134510e-01 1.028078e-01 9.679787e-02 1.023263e-01 9.524470e-02 1.138078e-02
<MIXTURE> 2 4.403526e-01
<MEAN> 39
 4.771445e-02 -1.964223e+01 -5.789016e+00 -9.494322e+00 3.382175e-01 -9.385498e-01 -1.003017e+01 -4.634959e+00 -5.041414e+00 -1.048841e+01 -8.902366e+00 -9.365328e+00 6.602377e+01 -9.998011e-02 -1.252676e-01 2.042561e-01 2.067542e-01 -2.921857e-01 -3.709296e-01 4.140203e-02 1.926772e-01 -1.322579e-01 -3.621161e-01 -1.229870e-01 6.231387e-02 -4.197331e-02 -1.455597e-02 4.291944e-02 7.580178e-02 -6.816571e-02 -2.392381e-01 -1.446367e-01 1.170655e-01 8.619460e-02 -1.416371e-01 -4.157024e-02 -5.175038e-02 7.242702e-03 -2.013460e-02
<VARIANCE> 39
 1.247935e+01 2.519608e+01 3.337245e+01 4.293584e+01 4.844378e+01 6.909386e+01 8.432381e+01 7.387332e+01 6.302886e+01 5.719640e+01 5.075665e+01 4.457013e+01 2.475910e+01 1.146654e-01 2.313497e-01 3.310828e-01 4.788108e-01 7.632800e-01 6.973310e-01 8.790787e-01 8.146010e-01 7.684292e-01 6.345016e-01 6.020334e-01 6.285220e-01 7.793779e-02 1.898834e-02 3.745080e-02 4.754618e-02 7.100408e-02 9.073118e-02 8.883557e-02 1.221745e-01 1.134181e-01 1.248105e-01 1.052810e-01 1.016639e-01 1.013158e-01 1.075551e-02
<STATE> 4
<NUMMIXES> 2
<MIXTURE> 1 5.420869e-01
<MEAN> 39
 7.122229e-01 -1.707456e+01 3.296820e+00 -6.904993e+00 -7.415054e+00 -3.609170e+00 -5.196938e+00 4.056342e+00 -3.331290e+00 -9.637353e+00 -5.567804e+00 -6.799181e+00 6.651923e+01 -1.342962e-01 8.615945e-01 1.512026e+00 -8.689889e-02 -1.657420e+00 -7.400699e-01 6.663900e-01 6.118813e-01 -8.143536e-01 4.184631e-01 6.690772e-01 2.030224e-01 -4.238980e-01 1.118999e-01 2.833500e-01 5.311654e-02 -4.260478e-02 9.708613e-02 6.189933e-02 -1.094537e-01 -3.587402e-01 -6.272732e-02 3.355921e-01 1.391499e-01 -7.915310e-02 -2.128127e-01
<VARIANCE> 39
 1.355761e+01 3.336994e+01 5.784560e+01 4.291279e+01 5.719852e+01 4.780491e+01 7.270247e+01 6.664939e+01 9.379471e+01 5.099143e+01 5.333350e+01 4.341950e+01 2.632253e+01 2.604285e-01 6.655217e-01 8.594406e-01 1.419834e+00 1.536752e+00 1.973220e+00 2.512551e+00 2.619390e+00 1.906342e+00 2.061435e+00 1.779964e+00 1.492590e+00 2.434028e-01 4.556838e-02 8.817752e-02 1.536998e-01 2.335116e-01 2.995806e-01 2.052280e-01 3.219673e-01 3.566859e-01 3.086132e-01 2.682553e-01 3.050471e-01 2.206239e-01 4.168584e-02
<MIXTURE> 2 4.579131e-01
<MEAN> 39
 -1.911456e+00 -1.905464e+01 -6.238855e-03 -1.042713e+01 -7.394154e+00 -5.633478e+00 -6.110816e+00 -1.337391e+00 -1.163037e+01 -1.334045e+01 -9.396062e+00 -6.402350e+00 6.566444e+01 -2.055680e-01 9.191991e-01 1.308740e+00 -9.334722e-01 -2.058775e+00 -5.215086e-01 1.350407e+00 2.416584e-02 -1.159830e+00 5.874156e-01 -9.269043e-02 -2.196028e-01 -3.727255e-01 1.215004e-01 3.027831e-01 3.537189e-02 -1.041436e-01 -4.095998e-02 -6.676471e-02 -2.143132e-01 -2.970043e-01 9.155674e-02 3.197448e-01 -9.800596e-02 -1.901988e-01 -2.299779e-01
<VARIANCE> 39
 1.319658e+01 2.866463e+01 5.181992e+01 4.282345e+01 6.497291e+01 4.122927e+01 6.629801e+01 6.115003e+01 8.167775e+01 4.426532e+01 4.329756e+01 3.449192e+01 2.424097e+01 2.776754e-01 7.387071e-01 7.167487e-01 1.496431e+00 1.529369e+00 1.866651e+00 2.338152e+00 2.629507e+00 2.061378e+00 2.450117e+00 1.708294e+00 1.617926e+00 2.419684e-01 4.580581e-02 8.026335e-02 1.207146e-01 2.594046e-01 2.806171e-01 2.211437e-01 3.927604e-01 3.117025e-01 3.485274e-01 2.893646e-01 2.715946e-01 2.454438e-01 3.570515e-02
<TRANSP> 5
0.000000e+00 0.000000e+00 0.000000e+00 0.000000e+00 0.000000e+00 
0.000000e+00 2.533888e+04 4.976535e+02 0.000000e+00 0.000000e+00 
0.000000e+00 0.000000e+00 1.026459e+08 1.024404e+05 0.000000e+00 
0.000000e+00 0.000000e+00 0.000000e+00 2.289050e+04 1.237859e+05 
0.000000e+00 0.000000e+00 0.000000e+00 0.000000e+00 0.000000e+00 
<ENDHMM>
~h "eh"
<BEGINHMM>
<NUMSTATES> 5
<STATE> 2
<NUMMIXES> 2
<MIXTURE> 1 5.257443e-01
<MEAN> 39
 -2.519481e+01 1.382168e+00 -2.875767e+00 -5.331037e+00 -3.798599e-01 -6.206752e+00 4.745715e-01 1.501582e+00 1.927435e-02 -1.183627e-01 -1.038174e-01 -4.509810e-01 5.601417e+01 6.498767e+00 -9.589626e-01 2.448400e+00 6.915944e-03 -1.832576e+00 -1.559377e+00 -2.088121e+00 -7.897107e-01 2.793311e-01 1.719039e-01 -1.093210e+00 -1.312866e+00 1.454788e+00 1.592813e+00 -9.233851e-01 4.279581e-01 -4.036003e-01 -6.481504e-01 -2.549617e-01 -9.757791e-01 7.005388e-02 2.001110e-01 1.194142e-01 -2.576994e-01 -5.495747e-01 8.741395e-01
<VARIANCE> 39
 2.273427e+01 1.395267e+01 3.546820e+01 4.145799e+01 3.760828e+01 3.890788e+01 2.519233e+01 2.646680e+01 2.240783e+01 2.038602e+01 2.059406e+01 1.513152e+01 1.770953e+01 3.244173e+00 2.327112e+00 2.014590e+00 3.662398e+00 1.831004e+00 3.333725e+00 3.379449e+00 2.158903e+00 2.567972e+00 3.316718e+00 2.640703e+00 2.505588e+00 1.287572e+00 4.884948e-01 3.121426e-01 4.913439e-01 6.088625e-01 5.079425e-01 9.239635e-01 6.772118e-01 6.012028e-01 7.343012e-01 5.660055e-01 8.109211e-01 5.339893e-01 1.501223e-01
<MIXTURE> 2 4.742557e-01
<MEAN> 39
 -2.438859e+01 8.892710e-01 -6.767817e+00 -6.702089e-01 -5.438753e+00 -1.716288e+00 -2.619677e-01 -1.307825e-01 -5.261812e-01 -9.895560e-01 2.218146e+00 -1.069940e+00 5.432419e+01 5.675573e+00 -6.136778e-01 2.273438e+00 -2.052459e+00 -2.594481e+00 -3.471059e+00 -1.925506e+00 -1.289875e+00 -1.012447e+00 -1.636940e+00 -2.088317e+00 -5.797842e-01 1.786611e+00 1.473261e+00 -9.886527e-01 3.537036e-01 -9.251684e-01 -7.726744e-01 -1.038936e+00 -5.132057e-01 -5.981852e-02 -2.396651e-01 -3.316755e-01 -9.719114e-01 -2.103033e-01 7.333202e-01
<VARIANCE> 39
 2.177241e+01 1.655192e+01 2.721517e+01 3.374438e+01 3.704071e+01 3.095247e+01 2.055498e+01 1.893652e+01 1.908247e+01 1.798122e+01 2.084383e+01 1.565133e+01 1.744471e+01 2.824613e+00 2.568375e+00 1.810559e+00 3.752447e+00 2.107213e+00 3.953172e+00 2.326649e+00 2.079779e+00 2.125805e+00 2.904144e+00 2.603318e+00 2.353908e+00 1.219433e+00 4.179137e-01 3.744764e-01 4.147582e-01 6.325829e-01 5.197140e-01 8.032489e-01 6.145258e-01 5.256361e-01 5.931512e-01 5.049917e-01 7.693282e-01 4.803141e-01 1.819045e-01
<STATE> 3
<NUMMIXES> 2
<MIXTURE> 1 5.242511e-01
<MEAN> 39
 -8.447213e+00 4.709113e-01 3.201764e+00 -4.485146e+00 -4.463931e+00 -1.085748e+01 -6.120273e+00 -1.964831e+00 -5.588495e-01 -4.098152e-01 -4.205776e+00 -4.628684e+00 5.914267e+01 7.609097e+00 -3.477464e+00 2.262661e+00 -1.209000e+00 -2.975126e+00 -1.460882e+00 -3.342088e+00 -6.665444e-02 8.726540e-01 5.469795e-01 -1.161642e+00 -1.967243e+00 3.315636e+00 -9.314604e-01 -8.414478e-01 -5.711840e-01 -5.596152e-01 -8.080537e-03 6.065295e-01 2.889953e-01 7.196192e-01 3.445655e-01 1.670821e-02 1.780165e-01 -6.992271e-02 4.215495e-01
<VARIANCE> 39
 5.519869e+01 2.628238e+01 2.703126e+01 2.335106e+01 6.099956e+01 3.176480e+01 3.930675e+01 2.929180e+01 2.920203e+01 3.553373e+01 2.460164e+01 2.190698e+01 2.785261e+01 2.416218e+00 2.201942e+00 3.784635e+00 6.156962e+00 3.250865e+00 7.029503e+00 6.056882e+00 5.280543e+00 5.918138e+00 5.251489e+00 6.249438e+00 4.578893e+00 9.283815e-01 8.351498e-01 3.510669e-01 3.127718e-01 3.568920e-01 5.094491e-01 5.289236e-01 7.404193e-01 4.341242e-01 4.775124e-01 4.275264e-01 4.766135e-01 3.478508e-01 2.536627e-01
<MIXTURE> 2 4.757489e-01
<MEAN> 39
 -8.718468e+00 9.053646e-01 -9.113192e-01 -4.347588e+00 -1.296910e+01 -1.136201e+01 -6.648569e+00 -4.719402e+00 -3.593123e+00 -5.754041e+00 -4.203634e+00 -2.929210e+00 5.799480e+01 6.546323e+00 -3.303173e+00 2.020459e+00 -3.905347e+00 -3.278445e+00 -4.378938e+00 -1.973484e+00 -5.722101e-01 -9.936506e-01 -1.584515e+00 -3.628045e+00 -7.207869e-01 3.155695e+00 -8.949557e-01 -1.019216e+00 -5.803266e-01 -3.723324e-01 4.641974e-01 6.881376e-01 7.012060e-01 6.502141e-01 3.732804e-02 1.381603e-01 -1.769246e-01 -1.150808e-01 2.591448e-01
<VARIANCE> 39
 4.956664e+01 2.189937e+01 2.135356e+01 2.539531e+01 5.967134e+01 4.270390e+01 2.767667e+01 2.154785e+01 2.288266e+01 2.948670e+01 3.133775e+01 2.110890e+01 2.466848e+01 2.025006e+00 2.946199e+00 3.231801e+00 6.239280e+00 3.671437e+00 6.485505e+00 5.095970e+00 4.428668e+00 4.486649e+00 4.239778e+00 5.530026e+00 4.051981e+00 1.141142e+00 7.035717e-01 3.525477e-01 3.202330e-01 4.175384e-01 6.284790e-01 7.966633e-01 5.842735e-01 4.410347e-01 4.557925e-01 3.995589e-01 5.807321e-01 2.930692e-01 1.984714e-01
<STATE> 4
<NUMMIXES> 2
<MIXTURE> 1 4.949858e-01
<MEAN> 39
 1.567343e-01 -1.135613e+01 4.370700e+00 -1.093924e+01 -1.143417e+01 -1.123419e+01 -1.159032e+01 1.823763e+00 1.757055e+00 3.273807e-01 -5.433793e+00 -7.845053e+00 6.769819e+01 2.020631e+00 -3.426858e+00 9.498443e-02 -1.667357e+00 -1.243435e+00 8.406511e-01 -2.091371e-01 1.780024e+00 9.159405e-01 -6.068280e-02 -6.318763e-01 -1.239785e+00 2.286187e+00 -1.901555e+00 6.891463e-01 -6.445621e-01 3.605955e-01 9.448902e-01 7.361882e-01 1.190877e+00 1.940324e-01 -1.209633e-01 -2.271059e-01 2.898191e-01 3.730905e-01 -7.368562e-01
<VARIANCE> 39
 1.023166e+01 2.097475e+01 3.639143e+01 3.483970e+01 4.652433e+01 4.480220e+01 6.852790e+01 5.368034e+01 6.829640e+01 6.926937e+01 5.940179e+01 4.843218e+01 1.782868e+01 5.152887e+00 2.151649e+00 2.313194e+00 2.764332e+00 4.286514e+00 3.121017e+00 7.180572e+00 3.125025e+00 4.301078e+00 2.770762e+00 3.345284e+00 2.389299e+00 1.428557e+00 3.185041e-01 3.263375e-01 3.542780e-01 6.548440e-01 4.231659e-01 7.621170e-01 6.372452e-01 6.295379e-01 5.287429e-01 5.292201e-01 6.597738e-01 4.776755e-01 1.178102e-01
<MIXTURE> 2 5.050142e-01
<MEAN> 39
 -1.336488e+00 -1.115826e+01 1.598944e+00 -1.345995e+01 -1.518670e+01 -1.538484e+01 -7.446083e+00 -9.881639e-01 -2.506789e+00 -4.506787e+00 -8.984440e+00 -4.162814e+00 6.618128e+01 1.855241e+00 -3.799539e+00 2.166586e-01 -2.848780e+00 -6.177630e-01 -2.093862e-01 7.102423e-01 1.276382e+00 -2.944374e-01 -8.999149e-01 -1.965094e+00 -1.117506e+00 2.491876e+00 -1.822710e+00 5.255067e-01 -7.038509e-01 7.822594e-01 1.050338e+00 1.383379e+00 9.177625e-01 2.566764e-01 -4.129990e-02 3.495259e-02 6.248968e-01 -3.164602e-03 -7.433636e-01
<VARIANCE> 39
 1.053209e+01 2.070276e+01 3.016242e+01 3.911536e+01 4.621270e+01 4.780119e+01 6.045861e+01 4.700391e+01 6.869942e+01 5.944539e+01 5.040960e+01 4.691114e+01 1.757995e+01 4.311424e+00 2.021677e+00 2.181585e+00 4.200618e+00 4.491849e+00 6.108642e+00 5.810083e+00 3.305169e+00 4.687288e+00 2.593498e+00 4.645701e+00 2.384701e+00 1.333221e+00 2.763449e-01 3.894786e-01 2.938411e-01 6.477584e-01 4.239202e-01 9.239370e-01 6.473791e-01 5.661736e-01 4.603733e-01 5.003961e-01 5.794116e-01 4.568381e-01 1.208819e-01
<TRANSP> 5
0.000000e+00 0.000000e+00 0.000000e+00 0.000000e+00 0.000000e+00 
0.000000e+00 6.103587e-01 7.790656e+00 0.000000e+00 0.000000e+00 
0.000000e+00 0.000000e+00 4.426531e-02 1.104617e+02 0.000000e+00 
0.000000e+00 0.000000e+00 0.000000e+00 1.305752e+00 2.635138e-02 
0.000000e+00 0.000000e+00 0.000000e+00 0.000000e+00 0.000000e+00 
<ENDHMM>
~h "ey"
<BEGINHMM>
<NUMSTATES> 5
<STATE> 2
<NUMMIXES> 2
<MIXTURE> 1 5.458675e-01
<MEAN> 39
 -1.939327e+00 -1.150030e+01 1.504933e+01 -8.410340e+00 -1.848325e+01 -7.531076e+00 -5.897030e+00 4.578591e+00 -4.829789e+00 -1.209174e+00 1.090790e+00 -4.717216e+00 6.381553e+01 8.796500e-02 -9.251421e-03 1.183244e+00 -2.656150e-01 -7.707331e-01 1.544223e-01 -1.680185e-01 -4.060204e-01 -5.039260e-01 8.883296e-02 4.471036e-01 8.678740e-02 8.522565e-01 -9.499289e-02 2.280334e-01 -1.993024e-02 1.350639e-01 1.981597e-01 5.839737e-02 -7.086381e-02 -1.909663e-01 -1.910340e-02 8.476579e-02 4.639871e-02 3.003798e-02 -3.422706e-01
<VARIANCE> 39
 1.429617e+01 2.834430e+01 7.348045e+01 4.488535e+01 5.568733e+01 4.209787e+01 5.458245e+01 5.990184e+01 5.412249e+01 4.382221e+01 7.504986e+01 2.642905e+01 5.077322e+01 1.117701e+00 1.878123e+00 1.654377e+00 1.528700e+00 2.147043e+00 1.465101e+00 2.110697e+00 2.595647e+00 1.920071e+00 1.609637e+00 1.929355e+00 1.288157e+00 4.631880e+00 1.986938e-01 2.430323e-01 2.255236e-01 2.553155e-01 3.240558e-01 2.712122e-01 3.195411e-01 3.639124e-01 3.252322e-01 2.778722e-01 3.445740e-01 2.098050e-01 4.152073e-01
<MIXTURE> 2 4.541325e-01
<MEAN> 39
 -3.983449e+00 -1.193646e+01 1.227604e+01 -1.143069e+01 -1.840500e+01 -7.213890e+00 -3.463975e+00 8.530642e-01 -7.646635e+00 -1.996819e+00 -1.706379e+00 -5.857612e+00 6.296082e+01 1.480408e-01 -2.237365e-01 9.876668e-01 -8.241926e-01 -8.351328e-01 4.248963e-02 -2.959641e-01 -7.319918e-01 -9.016367e-01 -1.249094e-01 -2.232173e-01 -5.597046e-01 1.236009e+00 -6.692371e-02 2.000118e-01 -4.088488e-02 4.823830e-02 1.204574e-01 -5.787482e-02 -1.822662e-01 -1.632302e-01 6.878441e-03 1.819840e-02 -9.333355e-02 -4.159084e-02 -2.868507e-01
<VARIANCE> 39
 1.823379e+01 3.480733e+01 9.283025e+01 6.094154e+01 6.449023e+01 4.781967e+01 7.408261e+01 5.711113e+01 5.841608e+01 5.142824e+01 9.766892e+01 2.768905e+01 8.145272e+01 1.337715e+00 2.818522e+00 1.753844e+00 3.206069e+00 2.740376e+00 1.819811e+00 2.407989e+00 2.584536e+00 2.546213e+00 1.997466e+00 2.607532e+00 1.503736e+00 7.737656e+00 2.129983e-01 2.848524e-01 2.368543e-01 3.301393e-01 3.679442e-01 2.947085e-01 3.554724e-01 3.629020e-01 3.740453e-01 3.033021e-01 3.286928e-01 2.252126e-01 6.900706e-01
<STATE> 3
<NUMMIXES> 2
<MIXTURE> 1 5.009580e-01
<MEAN> 39
 -5.395602e+00 -6.810732e+00 1.625074e+01 -2.177947e+01 -1.814620e+01 -8.434948e+00 -7.381088e+00 -9.903075e+00 -8.220425e+00 8.053995e-01 -9.755689e+00 -4.638671e+00 6.326077e+01 -2.474332e-02 9.325423e-01 1.013588e+00 1.557847e-01 2.009987e-01 -1.033884e-02 -9.419433e-01 -8.369020e-01 7.620975e-02 4.450483e-01 2.093534e-02 7.656373e-01 -6.551372e-01 3.915234e-02 1.193663e-01 -1.052760e-01 4.392172e-01 1.118803e-01 3.116047e-02 1.783715e-01 1.684123e-01 1.056255e-01 6.392256e-02 1.896229e-01 1.359389e-01 -4.067683e-01
<VARIANCE> 39
 1.055164e+01 4.291534e+01 5.477169e+01 7.884498e+01 2.456825e+01 3.771919e+01 7.102461e+01 5.625369e+01 4.859870e+01 4.965149e+01 6.855160e+01 3.619976e+01 2.593095e+01 4.513299e-01 9.984218e-01 1.020749e+00 1.570161e+00 1.165175e+00 1.249086e+00 1.809110e+00 1.430643e+00 1.893294e+00 1.708480e+00 1.618330e+00 1.828782e+00 1.555643e+00 1.117859e-01 2.048464e-01 2.085031e-01 3.108668e-01 2.358891e-01 2.501705e-01 3.603025e-01 2.555245e-01 3.186634e-01 3.156718e-01 3.092822e-01 3.063527e-01 3.288357e-01
<MIXTURE> 2 4.990420e-01
<MEAN> 39
 -5.942323e+00 -7.917243e+00 1.352055e+01 -2.403940e+01 -1.843518e+01 -8.962690e+00 -5.975318e+00 -1.002733e+01 -8.304620e+00 2.047685e-01 -1.201093e+01 -5.862843e+00 6.340103e+01 -1.229095e-01 6.744738e-01 7.906247e-01 -3.626884e-01 -2.356048e-01 -3.967305e-01 -1.318638e+00 -1.209941e+00 -2.106222e-01 9.680064e-03 -4.927476e-01 2.707462e-01 -2.456206e-01 -4.203065e-02 1.057520e-01 -8.793787e-02 3.391459e-01 9.997327e-02 3.577144e-03 2.118801e-02 1.547147e-02 2.955151e-03 -3.826871e-02 8.554394e-02 1.049726e-01 -3.857555e-01
<VARIANCE> 39
 1.036358e+01 4.461840e+01 4.582429e+01 4.945474e+01 2.749853e+01 3.655147e+01 7.691179e+01 4.803392e+01 4.658432e+01 5.256214e+01 4.594473e+01 3.547958e+01 2.551546e+01 5.488960e-01 1.156579e+00 1.064350e+00 2.080804e+00 1.416895e+00 1.338976e+00 1.902169e+00 1.433447e+00 1.890388e+00 2.043175e+00 1.867786e+00 1.982393e+00 2.761448e+00 1.104427e-01 2.294513e-01 2.022888e-01 3.369281e-01 2.451531e-01 2.314204e-01 3.680121e-01 2.667283e-01 3.556660e-01 3.335536e-01 3.193034e-01 3.076561e-01 4.460568e-01
<STATE> 4
<NUMMIXES> 2
<MIXTURE> 1 4.965949e-01
<MEAN> 39
 -4.278503e+00 -3.041334e+00 2.379205e+01 -1.004118e+01 -1.845664e+01 -8.356009e+00 -1.124967e+01 -9.999243e+00 -1.212877e+01 6.034722e-01 -2.798554e+00 -2.906073e+00 5.680733e+01 1.781168e-01 1.900305e+00 -1.315766e+00 3.231138e+00 1.371924e+00 -3.145788e-01 1.196079e+00 1.741673e-01 1.656580e-01 -5.422060e-01 2.819420e-01 7.020529e-02 -3.715610e+00 -2.139403e-01 3.974868e-01 -1.284162e+00 6.276163e-01 7.993623e-01 1.075445e-01 4.394714e-01 5.010895e-01 6.667881e-01 -2.699981e-01 1.320698e-01 -3.916403e-02 -8.848773e-01
<VARIANCE> 39
 1.222793e+01 3.440491e+01 3.736466e+01 9.908555e+01 3.051838e+01 4.083429e+01 4.503205e+01 8.005980e+01 5.208476e+01 6.555692e+01 8.504689e+01 4.856850e+01 3.494667e+01 1.254573e+00 2.683736e+00 4.678976e+00 4.327720e+00 3.815090e+00 2.809677e+00 3.833403e+00 3.719983e+00 3.654235e+00 4.101831e+00 4.240721e+00 2.901244e+00 3.036168e+00 2.741459e-01 4.764552e-01 4.359821e-01 6.814066e-01 5.337753e-01 5.746846e-01 6.180042e-01 7.026603e-01 6.820671e-01 7.097888e-01 6.285791e-01 5.649672e-01 3.966425e-01
<MIXTURE> 2 5.034051e-01
<MEAN> 39
 -5.045904e+00 -2.285476e+00 2.256969e+01 -1.188186e+01 -1.920945e+01 -8.945453e+00 -1.149875e+01 -1.210994e+01 -1.153613e+01 1.802602e+00 -4.706878e+00 -2.120306e+00 5.540061e+01 1.183127e-01 1.590006e+00 -1.508969e+00 3.159254e+00 8.761448e-01 -5.049831e-01 8.488829e-01 -1.955447e-02 -2.755126e-01 -8.423140e-01 4.537647e-01 -2.279419e-01 -3.665443e+00 -2.091899e-01 2.582406e-01 -1.335042e+00 5.729959e-01 7.585032e-01 -1.425566e-03 3.146292e-01 4.983042e-01 4.465459e-01 -4.675338e-01 1.336561e-01 -1.683944e-01 -7.748482e-01
<VARIANCE> 39
 1.189909e+01 3.716114e+01 3.406282e+01 9.800131e+01 3.256650e+01 4.190394e+01 4.491836e+01 7.869188e+01 5.755906e+01 7.097159e+01 9.136285e+01 5.429954e+01 3.649458e+01 1.288824e+00 2.436528e+00 4.819926e+00 4.228202e+00 3.611376e+00 2.817763e+00 3.874892e+00 4.083797e+00 3.466898e+00 4.540531e+00 4.093212e+00 3.003045e+00 3.059011e+00 3.106035e-01 4.468325e-01 4.602899e-01 7.363624e-01 5.754527e-01 5.945792e-01 6.701510e-01 7.168035e-01 7.500882e-01 8.121346e-01 6.426146e-01 6.453392e-01 4.085423e-01
<TRANSP> 5
0.000000e+00 0.000000e+00 0.000000e+00 0.000000e+00 0.000000e+00 
0.000000e+00 2.458712e+14 2.002767e+10 0.000000e+00 0.000000e+00 
0.000000e+00 0.000000e+00 7.173988e+14 1.144371e+04 0.000000e+00 
0.000000e+00 0.000000e+00 0.000000e+00 2.825934e+04 8.294905e+03 
0.000000e+00 0.000000e+00 0.000000e+00 0.000000e+00 0.000000e+00 
<ENDHMM>
~h "ih"
<BEGINHMM>
<NUMSTATES> 5
<STATE> 2
<NUMMIXES> 2
<MIXTURE> 1 5.273634e-01
<MEAN> 39
 -1.892982e+01 6.393807e+00 4.099891e+00 -2.121843e+00 -1.468126e+00 -9.520574e+00 -3.823407e+00 -2.405131e+00 -3.120594e+00 -2.386124e+00 -1.733376e+00 -2.456619e+00 5.816937e+01 5.364090e+00 -2.178882e+00 2.722803e+00 -3.585232e-01 -3.035641e+00 -2.362958e+00 -2.345194e+00 -9.115798e-01 -2.828912e-01 -2.421003e-01 -2.850937e-01 -4.081435e-01 1.946453e+00 7.769218e-01 -1.047012e+00 4.126591e-01 -2.030712e-01 -6.683097e-01 -6.090643e-02 -5.647476e-01 2.637965e-01 -2.150840e-02 3.380202e-02 1.720756e-01 2.097517e-02 3.011817e-01
<VARIANCE> 39
 3.952734e+01 3.079820e+01 6.126092e+01 3.285160e+01 5.660625e+01 4.959403e+01 5.211722e+01 4.741782e+01 2.962033e+01 2.859098e+01 2.074718e+01 2.199908e+01 2.317771e+01 5.172586e+00 3.828753e+00 4.243562e+00 5.231654e+00 2.625381e+00 4.320202e+00 4.296209e+00 3.328808e+00 3.096578e+00 2.704408e+00 2.954865e+00 2.633647e+00 9.361098e-01 6.374255e-01 3.226585e-01 6.225263e-01 5.765425e-01 5.224503e-01 8.262055e-01 7.504302e-01 6.132022e-01 6.221938e-01 6.585360e-01 6.223041e-01 3.940613e-01 2.222788e-01
<MIXTURE> 2 4.726366e-01
<MEAN> 39
